{
  "format": "pyoro-policy-v1",
  "modeKey": "pyoro1",
  "observationSize": 237,
  "actionSize": 6,
  "actions": [
    "idle",
    "left",
    "right",
    "ability",
    "leftAbility",
    "rightAbility"
  ],
  "layers": [
    {
      "inputSize": 237,
      "outputSize": 128,
      "activation": "relu",
      "weights": [
        [
          -0.03280838578056782,
          -0.05695706112301479,
          0.07671765003464469,
          -0.07558908222150751,
          -0.010036171062623545,
          0.006107721942065552,
          0.004880251472453806,
          0.011081601757951474,
          0.009044267681070937,
          -0.0018235362796685485,
          0.029496075971304818,
          -0.053171757866025605,
          -0.00766157438336153,
          -0.005788333991449287,
          -0.054658388352973916,
          0.05477548761021384,
          0.01198206454137766,
          0.07861557373459743,
          0.024064587463766423,
          -0.0761548668841289,
          -0.055269941773529285,
          -0.053486961807274656,
          -0.008814181836269168,
          -0.03850399071803497,
          -0.016199581121191558,
          0.04255560548652951,
          0.041641172239764004,
          -0.056760863013213446,
          -0.06936775918926166,
          0.0319757640310968,
          -0.05835351854535477,
          0.04492070051162496,
          -0.05494301648988611,
          0.055609289943921045,
          -0.08557406037310178,
          0.011805020203570292,
          -0.011758922785375318,
          -0.020771981217220292,
          -0.041692477380336504,
          -0.0899233775743663,
          -0.06568252410144645,
          -0.045463327892874925,
          -0.03208198486743318,
          0.012816999526148285,
          -0.03806458323384907,
          0.013060689158614611,
          -0.01030578258959267,
          -0.005208763870673429,
          0.06601501421038572,
          0.08401969052586943,
          0.03408780590971717,
          -0.08383231069363699,
          -0.06253468403291562,
          -0.04423692208469676,
          -0.06863997082201613,
          -0.06792765804103723,
          -0.04417597516532331,
          -0.031479922564864295,
          -0.04980973899161491,
          -0.06313325170613278,
          -0.06280499160702835,
          0.04290629060515877,
          0.00707555907452603,
          0.004450272095641183,
          0.01811698360061747,
          0.0129207184604246,
          -0.08204290852142065,
          -0.05940857749269276,
          -0.04315344167197626,
          0.06131084797121881,
          -0.050672041457722736,
          -0.04000797059717201,
          0.0047088366816382295,
          0.019248465481366165,
          0.018188178492545913,
          0.045624463569433935,
          0.06511623843795701,
          -0.06611679611371354,
          0.06776480225386175,
          0.02672765322439714,
          -0.034201071817319836,
          -0.019114523876147194,
          0.05100122605429419,
          0.06167219660122596,
          0.08590543551711748,
          0.02626058049573761,
          0.015137503002500486,
          -0.002739818604647859,
          -0.02835921290913064,
          -0.08920360951365627,
          -0.022779151329114962,
          0.024600832902811405,
          0.07363382195569593,
          -0.029513565397923148,
          0.021333173658168395,
          -0.05735875597010706,
          -0.05803314621641677,
          -0.0011877677196244691,
          0.05905479106060664,
          0.07744831246770119,
          -0.08066782706036635,
          -0.08595461584607848,
          -0.0024940878474624156,
          0.029673233103454242,
          0.00824122797450187,
          0.033872277499408826,
          -0.024309247019653354,
          0.03655034904095801,
          -0.007156836203558794,
          -0.017055825916565133,
          0.03255880424086307,
          -0.07226943484536445,
          0.04170902334024863,
          -0.08142024173892601,
          -0.06929818384768653,
          -0.0151538580785772,
          0.0345743668997291,
          0.018742676050035826,
          0.015217502952113948,
          -0.061970609495362323,
          0.035190281582755584,
          -0.0061752365038322266,
          0.04997007805500567,
          -0.04511678270215866,
          -0.01708545256436296,
          -0.013796836799840236,
          0.07020245625442359,
          -0.07109087204590694,
          -0.05211253466892076,
          -0.010320558396208213,
          0.03624393431590713,
          0.07230871660244764,
          -0.019164287098653365,
          0.06426246457802466,
          -0.02514215554319062,
          -0.022259515197508458,
          0.07356893214974052,
          0.05624315406788113,
          -0.02369225786396174,
          -0.07605846070354803,
          0.0017911777530270592,
          -0.07161770436744434,
          -0.038255947809185564,
          0.03609416779638668,
          0.028063617156405093,
          -0.0012781690329293268,
          -0.07547242604748301,
          0.015929912234705208,
          -0.03414447052060404,
          -0.08699490409836742,
          0.056615896738511445,
          -0.0775462097085391,
          0.049700519086332856,
          -0.0380458319155247,
          0.06385168996962585,
          -0.07258174230203115,
          -0.051449771797460686,
          -0.050620617893438954,
          0.025430663510990048,
          -0.027329793174343375,
          0.060898534558613326,
          -0.03903431432987721,
          0.061018533467329085,
          0.06315272620177492,
          -0.0486616095346063,
          -0.06828936200819498,
          0.04888932991599734,
          0.05418949878108772,
          0.03569539458075507,
          0.02236305432647405,
          0.0007897368713538358,
          0.029904937164944644,
          -0.07938200350402605,
          0.06754476376971047,
          0.05802509029530648,
          -0.05880263167217606,
          -0.033785195877864195,
          -0.08030414130647699,
          -0.006610924186542744,
          -0.0731952577323746,
          0.02655771379317108,
          -0.008090721363043736,
          0.0895389664968476,
          -0.02342790998104526,
          0.00940753248032321,
          -0.08660817358281793,
          0.06925845419099717,
          -0.05587567256057702,
          -0.009608534323146083,
          -0.025511141816616557,
          0.03229756232787739,
          -0.08118106961404238,
          -0.040713659449374516,
          -0.056230938276495904,
          -0.03201472263614302,
          0.02930100836427415,
          0.08310492658349912,
          -0.011707406211819395,
          -0.049376470614790446,
          -0.029540848669425312,
          0.059910299863936874,
          -0.002929049851998156,
          0.06749382680362313,
          -0.0505633211148418,
          -0.016101214239101973,
          0.03871645309480603,
          -0.04033965568457027,
          0.004319621963289083,
          0.006825838047341883,
          0.06210878618675356,
          -0.024779890746414363,
          -0.025478105833089917,
          0.053416662538705785,
          0.08809628915221918,
          0.027956095686273896,
          0.04715881721631332,
          0.059308093787660596,
          -0.048506731741343824,
          -0.03051924085409579,
          0.0642055346666169,
          -0.0020302831483067158,
          -0.028323732670377053,
          0.10470765258968988,
          0.038697029985505726,
          0.031240156661048308,
          -0.13174938121521818,
          0.019844058195259508,
          0.018008320512265617,
          0.06788337045393061,
          -0.01106654730917286,
          -0.024801674323885567,
          0.08148995933440564,
          -0.05165843735913617,
          0.04488619477907525,
          0.027084166156674652,
          -0.01824719843358059,
          -0.001662839003201742
        ],
        [
          0.133184641583495,
          -0.08267185180179383,
          -0.05493064458321125,
          0.09541316779860906,
          0.0934963075313415,
          0.0629367831359268,
          0.07876243633089644,
          -0.016991114614927763,
          0.15611632606162934,
          -0.01728523384003646,
          -0.030067739224887365,
          -0.030025969494299382,
          0.031069320720315798,
          0.03489224722351079,
          -0.013305025836929768,
          0.08780594266313324,
          -0.015600904751458351,
          0.052235753858203185,
          0.037454607944687,
          -0.041210209204396976,
          -0.025629520336619804,
          -0.07477816865754981,
          -0.07221128597221477,
          -0.08827185789525228,
          0.010996470367671412,
          0.020739435658009935,
          -0.01285937016387281,
          -0.03803453474289071,
          -0.04020200495759311,
          -0.04278779591735989,
          0.022369543449549653,
          -0.06326269141872165,
          0.05810028402413428,
          0.027916110468667987,
          0.000673418849016885,
          -0.08385863304578084,
          -0.011051060701097182,
          0.020367422494849057,
          0.07314194006723145,
          -0.03454970882447293,
          0.0911948302816362,
          -0.009912023920546298,
          -0.003319225000956714,
          -0.06430663658575769,
          0.0005961965406374396,
          0.0651429808180785,
          -0.008934400525244798,
          -0.0469834275808413,
          0.01675550806231095,
          -0.0017061698576503659,
          0.060152337489022795,
          -0.0513146880706592,
          0.02152598704725219,
          -0.02781903254502855,
          -0.06301365277124003,
          0.005843541257951741,
          0.055887593877121944,
          -0.046151108541779624,
          0.09186068982481345,
          0.038584770538048166,
          -0.06901839447022357,
          0.025836857208527644,
          0.052566463671351316,
          -0.01819709999116686,
          -0.06644977738888554,
          -0.08112059561139373,
          -0.005020082289649126,
          -0.049566738326518756,
          0.05544211038174193,
          -0.08451511478741042,
          -0.011861639281966754,
          -0.08312211358061997,
          -0.010825814014175667,
          -0.004142309712738675,
          -0.026286043229783607,
          0.06422739366004945,
          0.07339218746617085,
          0.049207291994922096,
          0.06782396480866303,
          -0.0018019127567570478,
          -0.02365428763768723,
          0.00498403978981987,
          -0.057392004814413984,
          -0.06149914862254434,
          0.06152086877654364,
          -0.01650604074872508,
          -0.0178643881321822,
          0.060989020375319794,
          -0.03726906864191809,
          -0.02938681228590987,
          -0.08915192924227572,
          -0.034400862708977624,
          -0.08791669238872687,
          -0.017919018786285965,
          0.09002158576853438,
          -0.018767338828281882,
          -0.06797586830426683,
          0.08512142160361075,
          0.041650082483529874,
          0.03292490361757026,
          -0.015563852541172724,
          -0.04344408560473423,
          0.08009159875430528,
          0.02499681362563372,
          -0.0808850539754758,
          -0.058368147893505286,
          -0.08118575194245436,
          0.035022148474309636,
          0.05483179720441654,
          0.012209958500799095,
          -0.04825596759914905,
          0.04399649305098715,
          -0.00430106701339122,
          -0.007247337874323603,
          -0.0032795911087150323,
          -0.026233104734543922,
          -0.06074261679950761,
          0.00820399366599126,
          0.06505150854449158,
          -0.06636189832712389,
          -0.02829566193629564,
          0.0174158551828567,
          -0.08677539002350391,
          -0.02702102234124839,
          -0.07958254491410932,
          -0.048357698361953506,
          0.08105780590753281,
          0.07943208531694447,
          -0.033477978742351665,
          -0.014812187948873276,
          -0.0062305135618274275,
          -0.04810184416981046,
          -0.057211061498234184,
          -0.028843723437317018,
          -0.03435448946183905,
          0.037059287958161394,
          -0.047584604955519874,
          0.016223482306016727,
          -0.028986121239411525,
          0.0193323546457206,
          -0.00986178058884709,
          0.06666526415303949,
          -0.0902119436345161,
          0.009631772527039851,
          0.030377225949779055,
          -0.07558720564292916,
          0.07502451350403419,
          0.08226579610637678,
          -0.025464952413246172,
          -0.07513291284797598,
          0.011632684996649444,
          -0.03244432064656972,
          0.02223941453070977,
          0.049526356196796684,
          0.02819272194719249,
          0.06394404565897199,
          -0.029969192166748152,
          -0.03104839052348509,
          -0.011692310756369593,
          -0.08870090112390824,
          0.036517026707336336,
          0.06472449761172565,
          0.06271243135671686,
          -0.07019259801015997,
          0.027516665593237517,
          0.08394214920783508,
          -0.07672460282352214,
          0.018804315086988377,
          -0.020473392510877448,
          0.044246793231602674,
          0.05498606344625028,
          -0.036606986483372024,
          -0.04210658903649408,
          0.048571600716343526,
          0.12016347655476432,
          0.0018287069407738772,
          0.08413149967149525,
          0.01788674361835012,
          0.07124764298972863,
          -0.07595307492392525,
          0.0986463479236194,
          0.017833462165312508,
          -0.08899445363126533,
          -0.006328693114432708,
          0.08255618977694003,
          0.0681090034737148,
          0.07790675910323237,
          0.06084712293844739,
          0.0443028925159895,
          -0.06764424362113669,
          0.07467992061834952,
          0.028979494482616414,
          -0.06574747837137587,
          -0.054446054579527725,
          0.03753437837742844,
          -0.08775986445826715,
          -0.04865937872789585,
          -0.08401579347765924,
          0.01917771213427784,
          -0.02000413747798619,
          -0.058511359404221426,
          0.0623054953968988,
          -0.08902078193857894,
          -0.04341037846241033,
          -0.0855459283373248,
          0.0546718670631815,
          -0.07375634513511067,
          0.012714452897272419,
          -0.059169458546587776,
          -0.052706335126756106,
          0.05699092870734468,
          0.0213893300742162,
          -0.06530825166772455,
          0.06270750477744755,
          -0.08266620655562007,
          0.03088619738346423,
          -0.021389936096862003,
          -0.018578002441820556,
          0.08713600980250145,
          0.077796418138792,
          0.03275429219725557,
          -0.031772837174903194,
          0.06319357619964852,
          0.20363585860071493,
          -0.09629118923081137,
          -0.023990427748721215,
          -0.06716060912624414,
          0.12321977946457645,
          -0.01949025080380236,
          0.0036777237269171566,
          -0.07073377401556559,
          0.035844197963823356,
          -0.020421404196228208,
          -0.08526349881309886,
          -0.08300889270576034,
          0.011278648662208715,
          -0.0561203851117965
        ],
        [
          0.07489353444237985,
          -0.03649555993271611,
          -0.04013892944004957,
          0.06802498811514397,
          0.0463026198930688,
          0.0068435976103671985,
          0.0917950667308423,
          0.05083025831268443,
          0.006004995309210848,
          -0.067974533883096,
          0.06835159960657264,
          -0.07289122646106377,
          -0.07109570356367302,
          0.0287538148378771,
          -0.04459440888461002,
          0.017735939087338892,
          -0.043332054687446095,
          -0.0729023874044888,
          0.03459360065732044,
          0.07885381374039724,
          -0.07545865658726898,
          0.01609053892369164,
          0.0330421662149005,
          0.03296706650436708,
          -0.07410720662356902,
          0.02957343597904876,
          -0.028127174933810464,
          -0.01183138233838236,
          0.03833071337113689,
          -0.04005871082385587,
          -0.06417975733702758,
          0.05171121266179598,
          0.06783017544638563,
          0.07723585677348799,
          0.03693007307928506,
          -0.07750628241229347,
          -0.06389554229820887,
          -0.015093937997894062,
          -0.004711712198563012,
          0.043136883227147066,
          -0.02649227615403703,
          -0.015701265900206172,
          -0.014297460062945157,
          0.020552310220968758,
          -0.018382328137150707,
          0.04710495315185631,
          0.07471509165434438,
          -0.08152256443928714,
          0.02906270386010356,
          -0.032910193800766485,
          0.008656441332391362,
          0.022826411889031405,
          0.08076935836921753,
          0.06041624959283794,
          -0.012513128555397794,
          -0.0058575791499215785,
          0.0661009805353534,
          -0.06391201809775314,
          0.06798616961946001,
          -0.0508604309997407,
          -0.05907033138776467,
          -0.0008106972444412126,
          0.014589542145791808,
          -0.059748446516598684,
          0.0852624636509611,
          -0.00342120748593106,
          0.05968903555043482,
          -0.07438910254671613,
          0.07852078994482503,
          -0.07729961983522333,
          0.004998072720956227,
          0.005564103775369104,
          0.07943103151000379,
          0.061557365338630994,
          0.07828240890304984,
          -0.04072705712601302,
          -0.08479933782553983,
          0.06254598367955455,
          -0.03688600465335407,
          0.05266100016694622,
          -0.07522809154801975,
          0.08623800687976695,
          -0.013404241652694606,
          0.0655258674866497,
          -0.08873455920975505,
          0.07368669176900107,
          -0.0356086642033867,
          -0.05028307064962203,
          -0.014202904963558815,
          0.06864446382559296,
          0.08075798902688536,
          -0.058773375624219366,
          -0.06976417969482474,
          -0.00964608463549742,
          0.03890087466655016,
          -0.05234053261172072,
          -0.04124033357873191,
          -0.04337915367677596,
          -0.09147647976914246,
          0.03033414864445098,
          -0.03143775967279879,
          -0.0912239064635145,
          0.003834916042368261,
          -0.06599183220649084,
          -0.028329813335136563,
          -0.012445562761588645,
          -0.042649884918601666,
          0.06731350463852563,
          0.06317993096714353,
          -0.053121771226568304,
          -0.039635885559935455,
          -0.07988950734540776,
          0.08482849069241898,
          -0.000028804548557738297,
          0.06225412463324902,
          -0.037351855891130485,
          0.008373750377653614,
          -0.012621188347809559,
          -0.001487048755733645,
          0.02939622189615372,
          -0.07355044311969298,
          0.07628284013716063,
          -0.08717686754702929,
          -0.038302367724079564,
          0.0004764069148592484,
          0.05973685507992493,
          0.07749522172445675,
          0.07863320429880445,
          -0.07408248321092277,
          0.001202232461186068,
          0.05054225030390807,
          -0.07673218305323334,
          0.0867723105454406,
          -0.0708672221402209,
          0.01577551126977585,
          0.008729981051900744,
          0.08691733833793365,
          0.08427471315231871,
          0.034359268924774415,
          -0.06167757626146094,
          0.02919891217909974,
          -0.0866892747719375,
          -0.05838908395638049,
          -0.0775978850035349,
          -0.05566378236134992,
          -0.033179097838912486,
          -0.026298171483032467,
          -0.001481999521956802,
          0.020204562250721415,
          -0.056139430580198525,
          0.03334687085477555,
          -0.03572962344362565,
          0.033883901984689026,
          0.004880803683579006,
          0.030916331654473498,
          -0.055970194877331174,
          0.0388711178890243,
          -0.05407821150416395,
          -0.0913770745196533,
          -0.08098769123840159,
          -0.03728441011360821,
          0.02819828245791402,
          -0.0780458696344033,
          -0.08739433944343211,
          0.04403078143629019,
          0.06154763909236018,
          -0.040680990809025444,
          -0.012860382042639926,
          0.023641231950774475,
          -0.026417225331613736,
          0.07873081909718971,
          -0.06965833556316031,
          -0.08356002695111314,
          0.02689188505833464,
          -0.010688490815275072,
          0.03158664445921119,
          0.07606512454761767,
          -0.034898374966853475,
          0.05315544431399579,
          0.016473204079586627,
          0.04817887086725673,
          0.0363696255231529,
          -0.06384208861094791,
          0.04970060286063017,
          0.050070963705751245,
          0.06567315495267365,
          0.0501376254907621,
          -0.02885320111136832,
          0.023457771515860603,
          0.040324952356313906,
          0.07530370185528673,
          0.06502688484161956,
          0.07706077953587717,
          -0.0024453525362243306,
          0.0011603820504253993,
          0.03805738652751171,
          -0.03611256830892814,
          0.06748627865294743,
          0.030762235145409614,
          -0.05048884954269554,
          0.0371817191170631,
          0.08137633695403648,
          0.057180565243514385,
          -0.031187033321623515,
          -0.0014655114506166727,
          0.006504884954961893,
          0.047267813727910384,
          -0.004844385172651165,
          0.0053309965893102145,
          0.06478175145295868,
          -0.0004651791244258872,
          0.03522243725169952,
          -0.08936277591306933,
          -0.05167811001689943,
          0.019510705387027358,
          -0.06240937615680292,
          -0.0022165254956676545,
          -0.08828248632700202,
          0.04249916547291707,
          0.05094089948829232,
          0.007586184079706487,
          0.048570969329034555,
          -0.09722983195745148,
          -0.025873781878039737,
          -0.06900947766520563,
          -0.061058021263633154,
          0.013357927066283137,
          -0.08235418154905771,
          0.050122817500844366,
          -0.016684199982432153,
          -0.08941839892756324,
          -0.02459546783585683,
          0.06521553435229206,
          -0.08364051887794544,
          0.005706552933788879,
          0.01649049915461084,
          0.00764170040820628
        ],
        [
          -0.0248595977667556,
          0.005115332691620325,
          0.10898045931301971,
          -0.099930330729338,
          0.01931179873005314,
          -0.020191463982126998,
          -0.06872506201383723,
          0.08659343364912746,
          0.04022508406470802,
          -0.019472738132797696,
          0.05327167007002935,
          -0.0350707833143908,
          0.07096518972114618,
          0.05894272955689492,
          -0.005986371431668061,
          0.03412998405066001,
          0.020352954222852437,
          0.05859277159755099,
          -0.003077201620632637,
          0.09034907000507378,
          0.06347919224964124,
          -0.04142891438012921,
          -0.060362724622156125,
          -0.0015098911130860314,
          0.07218377647102973,
          0.05973402508548561,
          0.02171793726640654,
          0.008677609732925367,
          0.006003734128051129,
          0.0759206372279475,
          -0.06569476030909387,
          0.06782535904857674,
          -0.06898036330883706,
          0.08583365862403941,
          0.05506815667991344,
          0.0862309373320127,
          0.09116210839537382,
          0.06786744530438912,
          -0.06153620942899927,
          -0.01826345778118811,
          0.04799162742160772,
          -0.03829148295480049,
          0.051711911895661176,
          0.009898987396834777,
          -0.04044059564975208,
          -0.029109384072999348,
          -0.03850667343873863,
          -0.016445567240263363,
          0.0066188938260916125,
          0.03858922243250668,
          0.07549117930352792,
          0.021570660930358088,
          0.09166808160888225,
          0.04620845453080078,
          -0.014573136286744894,
          -0.021745298844509105,
          -0.030299935045627644,
          -0.010186415934149833,
          -0.00729839386232718,
          -0.03768230708338422,
          0.04859360417005142,
          -0.07778881327538069,
          0.05935115168167279,
          -0.07627911833790373,
          0.08934415578493125,
          -0.08114182787808219,
          -0.08425223519355517,
          0.009544231142381164,
          -0.05546302186323799,
          -0.061821568882573605,
          -0.0799900643653071,
          -0.048553562230060514,
          0.0720624789873125,
          0.08408330040294361,
          -0.020148478409222223,
          -0.05951771178920845,
          0.0542248151468014,
          -0.0588358133714043,
          0.00032692465654024494,
          -0.0790191395866536,
          -0.007408880178598584,
          0.0014006265295971204,
          0.037235132773963904,
          -0.08415477717346449,
          0.009314449180380659,
          0.022725082946911272,
          -0.061950245209361106,
          0.07782207349036431,
          -0.035825158422242605,
          0.07743715927065666,
          -0.024098383255381082,
          -0.013695940707494164,
          0.008401947146400673,
          0.0027091023590530214,
          -0.042351502441893715,
          -0.008419340293873642,
          0.08601455362306237,
          0.032101215968786456,
          -0.033947315681771784,
          -0.036581019119446855,
          -0.020443411317893425,
          -0.034387587920756295,
          0.07641314951920816,
          0.016141619498156734,
          0.04335361249164652,
          -0.009522211309160847,
          -0.018033452578881785,
          0.05861500430771351,
          -0.003009180216711234,
          0.08198852549148232,
          -0.016300321472050246,
          0.06713545496955864,
          -0.06334564838132528,
          0.08228575156910133,
          -0.0028797525779508,
          -0.06309896627295795,
          -0.029137758353724123,
          0.04543978684822634,
          0.07876223187862409,
          -0.02560875692115628,
          0.0634128338512442,
          0.04024071320185999,
          0.02740185461541709,
          -0.048994951065598154,
          0.07203170858612971,
          0.020770902690668898,
          -0.052566888233772875,
          -0.07956688411657421,
          -0.08962637617475094,
          0.013246994556581999,
          -0.06573927663957545,
          0.009807431258518776,
          0.01039616997573407,
          -0.002516773249273997,
          0.005339779993215439,
          0.03634464513970599,
          -0.009609929127979953,
          0.025960783013734078,
          0.01020772501277781,
          -0.026652319480012208,
          0.01555349152824138,
          0.016272304769145568,
          0.021521852503314978,
          -0.013800550343907708,
          -0.0340638783667422,
          -0.02734056910600303,
          0.08113883775903329,
          -0.002283336206594194,
          -0.06542284996641672,
          -0.06693673537197677,
          0.013337677368750174,
          0.06146841624968672,
          -0.03582540172926663,
          0.07155316742050959,
          0.03607284757276839,
          0.05906029937656913,
          -0.035713831010782085,
          -0.05632278032462372,
          -0.03501119358798696,
          0.08419286523701672,
          0.06292185451315893,
          -0.04670230812097691,
          0.08376779961244908,
          0.005670547379589307,
          -0.0034952858922069237,
          0.0746059195362683,
          -0.01828999963137589,
          0.047667262749840254,
          0.001684431078150866,
          0.07098494245270263,
          -0.03317375261112422,
          -0.04081316921136195,
          0.06042339986366588,
          -0.08798010756919324,
          0.0552375195234625,
          -0.027598415767231693,
          0.062197963960940676,
          0.023799668135069667,
          -0.01994390845035013,
          0.07080995833550736,
          -0.09058897771028074,
          -0.005725831146682103,
          0.023663281719041557,
          -0.05279989200972439,
          -0.07047108750879642,
          0.043508049546049525,
          -0.06661796274061506,
          -0.045459657095879,
          -0.016700138367341317,
          0.018934251265548544,
          -0.0685861696318515,
          -0.029201394728086735,
          -0.0804572184639563,
          0.07182046746582427,
          -0.06440259433818775,
          0.08845935722489373,
          0.06458482405519736,
          -0.023715909242019974,
          -0.0023293840488070976,
          0.0521689018220007,
          0.054331223817219644,
          -0.03836204748393452,
          -0.025175514794829372,
          0.06811410875547008,
          -0.059548441718773965,
          -0.05467229611711934,
          -0.08582239221517812,
          -0.024575236723541373,
          0.03578434716390187,
          0.0793180174622418,
          -0.08609051914297086,
          -0.08040738369933612,
          0.007132866093643164,
          -0.04742448450578385,
          0.005858715950360073,
          0.03869828867071578,
          -0.07317776957876027,
          -0.04136138360027451,
          0.054700221283021606,
          0.048880586799265976,
          0.013544624228352325,
          0.07370060559589825,
          0.05284288696215167,
          -0.026279306969744006,
          -0.028878843087831584,
          0.029505682862638376,
          -0.07869321523106791,
          0.07817023852746921,
          0.08048537520082351,
          -0.044598633312627575,
          0.03663889427689219,
          0.0767917589127196,
          0.04630579292397437,
          -0.05338049166621746,
          0.07049405726001083,
          -0.06684840952034231,
          0.05880078682811748
        ],
        [
          0.025869589148208,
          0.08226784178080453,
          0.0883196941741099,
          -0.13062764812613528,
          -0.017532039356043055,
          0.026389061897342397,
          -0.0769258140564773,
          -0.022230289540417305,
          -0.12260226800744958,
          -0.07024900110202587,
          -0.027795276003876285,
          0.01754664988883541,
          -0.11178621558139967,
          -0.008280741546796266,
          0.04177158979322677,
          0.01473028116280311,
          -0.08224712412217909,
          0.08298113086268305,
          -0.023301863454492092,
          -0.08764043897793547,
          -0.05738453384951339,
          -0.08408202265208387,
          -0.05101821962781392,
          -0.04153796851242959,
          -0.06311834308705379,
          -0.007612266965853927,
          0.03956048821521101,
          0.09064023999539175,
          -0.08952601998548959,
          -0.060487648060807274,
          -0.06662416005230404,
          -0.06479731982267409,
          -0.08632372912231118,
          -0.0796381843977654,
          -0.08925619224168801,
          0.08994477902433734,
          -0.017696933550020562,
          0.02241252387430149,
          -0.029526458422790867,
          -0.0712643232931915,
          -0.02681060970743481,
          -0.03596291706009261,
          -0.07641489718339875,
          -0.03749359936557467,
          0.005804177248848856,
          -0.007746515119718061,
          0.05671996309367804,
          0.025880832371093093,
          -0.0670658834866589,
          -0.024117134593574348,
          0.06900128894954081,
          -0.08014163355069534,
          -0.007068752259994527,
          -0.03983126856141954,
          0.07318165566101181,
          -0.028612595864817462,
          -0.03847438685186523,
          0.014879450554979693,
          -0.03887801260650124,
          0.08994435467587639,
          -0.013284313354328912,
          0.056251121953254477,
          -0.002461078925358987,
          -0.007259678695709755,
          -0.03665396040111565,
          -0.04423987485699659,
          0.00021451819962237497,
          -0.02036907334724877,
          -0.021957868163936654,
          -0.04204592234671329,
          -0.08103081417132134,
          -0.057643857129492646,
          0.07460327189939303,
          -0.018378659276823014,
          0.046495556978567665,
          -0.07283410888157993,
          -0.0338809586640678,
          0.08448030037557702,
          -0.05130902963553009,
          0.08820521087489419,
          0.0714431323278455,
          0.03450751950986813,
          -0.08875860789141062,
          0.004015518197840983,
          -0.027127234146374603,
          -0.018365458147841653,
          0.07261854442930198,
          0.0036304846482309258,
          0.07613762295592053,
          -0.05732473494401127,
          -0.06431756009592898,
          -0.0545184553100057,
          0.047200837037967625,
          -0.017055569680301978,
          0.040985446416294036,
          -0.08666949417017399,
          -0.0557836129607328,
          0.04503619924277384,
          0.0722688298708998,
          -0.01925194411355883,
          -0.08967948567064044,
          0.009942719311081994,
          -0.07294497838478702,
          -0.07894150402287586,
          -0.07099083284976447,
          0.024267631991149504,
          -0.044741132185006555,
          0.07858390218930406,
          0.049915235738030625,
          -0.06599275406353101,
          -0.0015620907034701815,
          0.09108216008310495,
          0.03657437759610494,
          -0.01786666467146738,
          0.08804076806428546,
          0.07882008381051911,
          -0.0003319818033134934,
          0.02567755484669457,
          -0.03946373988030665,
          0.0022170545940814923,
          0.02307194526597681,
          -0.08198942403522394,
          -0.02170747816055069,
          -0.03876030170040455,
          -0.058051234163961386,
          0.022748459093666133,
          -0.054052028126451886,
          0.09019675807499954,
          0.07918876654005774,
          -0.04240279574518648,
          0.008157199002474266,
          -0.04683063113554313,
          -0.032985464477277585,
          -0.05778726297437451,
          0.026742907017541027,
          0.03006243647512386,
          0.014521092109394012,
          -0.06644872087772323,
          0.010751032983754136,
          -0.02628335687798567,
          -0.08799388578774973,
          -0.07582540539807352,
          0.03982143263954509,
          0.0419613738716884,
          0.044892077973187054,
          -0.053533210079810156,
          -0.05222914707093135,
          0.0298501401998531,
          -0.001291779709583001,
          0.09124821461323977,
          -0.016110289741695902,
          0.06374839628280908,
          -0.019067770687848987,
          0.012555161906768466,
          -0.0814395854317712,
          0.0488510830124029,
          -0.07495801748608844,
          0.07935132425101997,
          -0.0027742873223650945,
          -0.022212618248819364,
          -0.05303539736588567,
          0.003418937337780738,
          -0.05226384189260906,
          -0.07291458020018794,
          -0.06852950677405273,
          -0.03379419019307366,
          0.030621802048742458,
          0.01522023879182742,
          -0.0851095133517921,
          0.06765900235355347,
          -0.014371660023142026,
          0.032370557065095576,
          0.02185757719040464,
          -0.0676784680230705,
          0.0022693407359651763,
          0.06978817779820569,
          -0.022617083286457437,
          0.028107617909515433,
          0.0023862636261327893,
          -0.04209189872422875,
          -0.013956049461829769,
          0.007425355257809615,
          0.023761472371585247,
          -0.031994325926763996,
          0.07839673972763145,
          -0.01648324983738629,
          0.02420657010007353,
          0.025987321498373395,
          0.058705398971744156,
          0.044752441051968544,
          0.02771276156946686,
          0.07806041564540575,
          0.07986588359528847,
          0.011296871197893256,
          0.09159714854930086,
          0.008811182981744622,
          0.0687708688727417,
          0.08733540692581523,
          -0.0016194187874693548,
          0.05367496477297793,
          -0.05242706567247534,
          -0.024387013969290477,
          0.04650597396329698,
          0.07111263386148031,
          -0.08466247128767418,
          -0.04345779371357271,
          -0.07633590801122582,
          0.035800165822210524,
          0.03323780424462127,
          0.024330575966199988,
          0.012442720162542243,
          -0.04882125394401841,
          -0.08665953158753845,
          -0.07889515657363877,
          -0.05070746693989533,
          0.03196452393012901,
          -0.05224533861517969,
          0.037755447946667235,
          0.019726156554384956,
          0.07899972061156374,
          -0.07189759882057913,
          -0.039495331433999206,
          0.08982871374635637,
          0.09746348661734783,
          -0.013607067861239578,
          -0.012837279883385278,
          -0.029185819667884704,
          -0.04547958569399696,
          0.04518913246810713,
          -0.05111082239802941,
          -0.016342974155497517,
          -0.05757261223117803,
          0.08795377830927513,
          -0.07656407008329447,
          0.028748553261771753,
          -0.009248607418190983,
          -0.0009522448334897089
        ],
        [
          0.031289939963480694,
          0.0026857502607885823,
          -0.0426174070262944,
          0.022223535112675684,
          0.08722945633404108,
          -0.03577097590899368,
          -0.054247207270765097,
          0.01203200416368659,
          0.00033026906843999624,
          0.04677901789827149,
          0.07628173069033942,
          -0.006796968677759628,
          0.011907668969107369,
          0.00712018298477694,
          0.08705792309801812,
          0.034558307441825406,
          0.027997208250587463,
          -0.05330193385794376,
          0.05051140652945848,
          -0.026260915854883382,
          0.014309245443129863,
          0.03826659756974337,
          0.0389487456772619,
          -0.08671509548413185,
          -0.05096183980152856,
          -0.05298912325109778,
          0.0008062075778364229,
          0.0644303754847685,
          0.08471677005264129,
          -0.03723894066760917,
          -0.020101086984883713,
          0.08549354718251974,
          0.09058501489313411,
          0.038462721119124604,
          0.025106270536955314,
          -0.04074559456608911,
          -0.042590434998666,
          0.017307009160202943,
          -0.007933416747167733,
          -0.008577673060969687,
          -0.04335101339603463,
          -0.006633494022549277,
          -0.04635387891947825,
          0.06733445538145678,
          -0.08962842164290032,
          0.039914762628831535,
          -0.04944116767091052,
          0.07880672641819672,
          -0.0262764998810037,
          -0.01582583976470179,
          0.013483360887046852,
          0.06939653326597116,
          0.060535828978613065,
          -0.028858949011086342,
          -0.005887844563364366,
          0.012522541049143224,
          -0.0025765298968229507,
          0.08680255746631615,
          -0.09081300072370486,
          0.05741182210773067,
          -0.07158627839548574,
          -0.045412238819245596,
          0.013793265733584794,
          0.08871228407240685,
          -0.0766109915588233,
          -0.0386663308683455,
          -0.02926954293533397,
          -0.044567183337566506,
          -0.048913348297088315,
          0.07621766570809627,
          0.015616470768435314,
          -0.017994997620077738,
          -0.012117241684710197,
          0.01912724987294673,
          0.0789667800061803,
          -0.06730595584793503,
          -0.05446877098092826,
          0.010820234088576488,
          -0.07931628994925241,
          -0.06886218301414597,
          0.07551806548528013,
          0.052433809975432046,
          0.0378017104573397,
          0.04129097036371302,
          -0.07698552148668637,
          0.02489641491486259,
          -0.08999503691934456,
          -0.0772417183085036,
          -0.009717616734963212,
          0.055098771564971324,
          0.0874045818692408,
          0.04622755964046639,
          -0.08096332857038102,
          -0.06162030453273793,
          -0.08409123154879586,
          -0.09097867645161678,
          -0.07817802597403532,
          -0.014698777890067679,
          0.008101209631081852,
          -0.09110207105783331,
          -0.028881070048876724,
          -0.05729924427297864,
          -0.018323545371985737,
          -0.04203040553479269,
          -0.023353443703073372,
          -0.08195024525551052,
          -0.07687094095935777,
          0.03627595980150618,
          0.00404663996133164,
          0.042422948032808064,
          0.07835875600109898,
          -0.002117575576309601,
          0.0034098749760149167,
          -0.006553877257082616,
          -0.022492110260988327,
          0.03512171886469867,
          0.036037791030493045,
          -0.03910166566604958,
          -0.044527673668607715,
          0.020329322656700937,
          -0.03250179021382406,
          0.009031857384875245,
          -0.011981753825275315,
          0.07477370771076902,
          -0.04371674451848799,
          -0.02355211149514938,
          0.08513623964309616,
          -0.041022338507213145,
          -0.024128517506988235,
          0.053901408478806485,
          0.08222231827759627,
          -0.02429748101688773,
          -0.010078519019345096,
          0.057119395743301514,
          0.08579697348531821,
          -0.06737845306423139,
          -0.07441523611716921,
          -0.014494224865652109,
          0.032433397220373764,
          0.054613096124482716,
          0.059537026999232676,
          -0.0804578769831163,
          -0.08789933834869156,
          0.007113122464325386,
          -0.01215017582059887,
          0.0009174303724855232,
          0.05371827042236479,
          -0.06410885038885614,
          0.04573208284846274,
          0.06770375988295202,
          0.030832378349429826,
          0.04992772547758811,
          0.024654443230741938,
          0.00035120494399744253,
          -0.09173506899343067,
          -0.0805820793966261,
          -0.031245996217956266,
          0.08545129338171505,
          -0.07763078392180708,
          -0.029383691306870532,
          -0.025055970223732776,
          -0.01914152134618056,
          -0.029679494026770194,
          0.058594875862985465,
          0.05812261480649922,
          -0.02225720725607029,
          0.08883054371077628,
          -0.03205141478269394,
          0.08813033690283326,
          -0.0779298523447104,
          -0.024318301083073736,
          -0.04284195705515477,
          0.01344437199250791,
          -0.06639180776817465,
          -0.0812958590080503,
          -0.026801472004998085,
          -0.06625002062597443,
          -0.02132131184287229,
          -0.07010445029569119,
          -0.08087803155320533,
          -0.001928576583169208,
          -0.05196852211975868,
          0.06142091044544307,
          0.020324738823247722,
          -0.0817677745369698,
          0.02391870844519268,
          -0.06068424825341086,
          0.07848729600939308,
          -0.01594884195118973,
          0.07292056323547035,
          0.07529951128687286,
          -0.084109626117775,
          -0.07316865595053616,
          -0.0904004839187509,
          0.008701928569712856,
          -0.07591558327235141,
          -0.01546237446164759,
          -0.0631629778008785,
          -0.017527832313858443,
          -0.04964500187137886,
          -0.026161621865516148,
          -0.04298724384338373,
          -0.08404479172120734,
          -0.0018198046433676805,
          0.0016384066700145794,
          0.03302737364999234,
          -0.05151464495817381,
          -0.02398069219028434,
          -0.07828532753925371,
          -0.05355570912401253,
          -0.04512268417636538,
          -0.0004210747323543354,
          0.05416250051640556,
          -0.07934041459112183,
          0.07649983176839367,
          0.05721834821238371,
          -0.010183753831990343,
          -0.03335684155945918,
          0.06966207384978228,
          0.06674302540335031,
          0.011697892279621556,
          -0.048077741327441366,
          -0.011095724902978653,
          0.012893433588339625,
          -0.007548176447940629,
          -0.0644331469364077,
          -0.05936170082793795,
          -0.04031214417038328,
          -0.012098679158530632,
          -0.07185280962665269,
          -0.006586720298994656,
          -0.060285435153788404,
          0.04516649032675651,
          -0.04287032373648197,
          -0.05326429551832307,
          0.036072065986363706,
          0.0665180491957956
        ],
        [
          -0.029937667607162047,
          -0.057604512797838556,
          0.012047001363413202,
          -0.04698430256422072,
          0.04430349520503266,
          -0.061298845158268896,
          -0.01209850289300047,
          -0.018326176977944836,
          0.021233771588589266,
          -0.02296790783179247,
          0.038612154360223284,
          -0.0643289961355119,
          -0.09030441496012294,
          0.07779092893113786,
          0.03565677993167402,
          -0.04036372193165574,
          0.02004267687365341,
          -0.06773349000229552,
          -0.027517878088861174,
          -0.012405583127318119,
          0.01695248732405236,
          -0.05622903709693141,
          0.03380205179496332,
          -0.0475250530805082,
          -0.04663077638563805,
          0.03393269666573672,
          -0.09135103444731087,
          -0.08271580125534467,
          -0.09017916220739641,
          0.06483064939988771,
          0.02076006280037091,
          0.06091129472127315,
          -0.062240850143801534,
          -0.03817899998427064,
          -0.08015904218964363,
          0.04228162079611601,
          -0.04978751587982553,
          0.05443134584218755,
          -0.05214118900143715,
          -0.009947507108976326,
          -0.049356863363155895,
          -0.09078997887860268,
          0.008609857453440542,
          -0.09170843731862731,
          0.075347137768953,
          0.07488483467477663,
          -0.06414826028639851,
          -0.05172070040039451,
          -0.001515391772788221,
          -0.030740395102215785,
          0.00916132069363214,
          0.015166409656809819,
          -0.047972753112163695,
          -0.08101824019598766,
          -0.03800431227761877,
          0.07479221185387541,
          -0.05886757760756633,
          -0.06642813531793741,
          0.09113326955419156,
          0.03103661821860707,
          0.012875508452393186,
          0.04803610397412386,
          -0.07544235732866206,
          -0.01651143797064989,
          0.024027345111414185,
          -0.03893023142235374,
          -0.05504352423562745,
          0.017325587666259124,
          -0.09183809669143261,
          -0.003010106567937542,
          0.02107236786789113,
          -0.0004903313527994822,
          0.058215193822979336,
          0.050990625000274334,
          -0.052585746416189016,
          -0.08695438523904778,
          0.025439312256116755,
          0.037481540340520536,
          -0.0013152600116104695,
          -0.07144179639242054,
          -0.0606858001959184,
          0.0795713568048435,
          -0.021963472944466135,
          -0.0627197818715715,
          -0.09164683872666557,
          -0.03520704707162227,
          -0.0065555778452793265,
          -0.07314721083792428,
          -0.06870719044715944,
          0.0807257157867249,
          0.027371476377150858,
          -0.07843704094592162,
          0.04368198625754854,
          0.0857583464805275,
          -0.03270952651985928,
          0.048655887607161254,
          0.0832061171570621,
          -0.06419235756836286,
          0.024742824668401733,
          -0.08999235646746798,
          0.04059462399531454,
          -0.0780109955696779,
          0.0028306166875823936,
          0.012865499009560681,
          0.03560677554423391,
          -0.0072825732115435315,
          -0.04296285217312802,
          -0.07089393746398823,
          -0.009253708755221027,
          -0.0338736547246639,
          0.039177206519062556,
          0.037145629950782515,
          0.06142185404321106,
          -0.019328274525458596,
          -0.06578683663691105,
          -0.08815699863426174,
          -0.01568136081385194,
          -0.07393596655766112,
          0.021654480008967386,
          0.03906253628705216,
          0.036907640091220995,
          -0.05894937680314248,
          -0.060208046149734955,
          0.03483070005232822,
          -0.005740814018652319,
          -0.08114848503242302,
          -0.07607558520316594,
          0.06971952174544618,
          -0.08076264123872809,
          -0.01782585137376416,
          -0.024123050309387342,
          0.009560580771044661,
          0.05388349913905325,
          -0.06920583128979561,
          -0.057637422297812255,
          -0.05382253486894868,
          0.06468725530864258,
          0.027017825861793136,
          -0.040275426898823505,
          0.03867443731070967,
          -0.050547183977059484,
          0.008885014022370144,
          0.05348871102644109,
          0.07283347838512555,
          -0.018287159941291535,
          0.009349192660343633,
          -0.09075089723079446,
          0.027624213853209754,
          0.015830960597614074,
          0.060156646162429626,
          0.0820717783024173,
          -0.00313638411392083,
          -0.0659573292791559,
          0.05290056270770417,
          0.032911295247851684,
          -0.07600887703148901,
          -0.061643099598422554,
          0.08652478305081868,
          -0.056472452557528086,
          -0.07334311953635637,
          0.06777896459320158,
          -0.0912318545072717,
          0.059954102278004184,
          -0.06804116047203665,
          -0.01011915893823556,
          -0.06989796205093896,
          -0.03940067226057162,
          -0.02325186680294902,
          -0.06705159174584023,
          -0.08453937106518336,
          0.04668160855630232,
          0.05010975203419475,
          -0.07464194065326339,
          0.07048553951911317,
          0.035694358149282505,
          0.05599770674476216,
          -0.044294773185780935,
          -0.035543573320965145,
          -0.047798986954777495,
          0.028799635380756927,
          0.04555501014002734,
          -0.08882367693901119,
          0.00002115265576136836,
          -0.05845421176334973,
          0.07119621975845804,
          0.08271968835404077,
          -0.024207175039420867,
          0.07570608051075031,
          0.028184220738974145,
          0.06021605629128381,
          0.08891216230213903,
          0.022679038834972277,
          0.02930704649618171,
          -0.03033002125206908,
          -0.03301710009178268,
          -0.0705128630840599,
          -0.08595744675944925,
          -0.037807561702053995,
          0.0590550821777133,
          -0.012787625330027627,
          -0.0370178821117782,
          -0.07948556589103169,
          0.05661275436385806,
          -0.041347812662719974,
          0.03839691327102009,
          -0.006368733863468165,
          0.025475933956067783,
          -0.08225241953753494,
          0.060203132170907336,
          -0.058870364319309164,
          0.0722801898957788,
          0.03287631825990295,
          0.0284708580461716,
          -0.06281228175959012,
          -0.05345485077746615,
          0.0887608107572096,
          -0.0356608423409776,
          0.03725585796921648,
          0.0879182591025584,
          -0.013326764669593495,
          0.025759983789870735,
          0.0580016967546182,
          0.04006808810519553,
          -0.003895395768367867,
          -0.051436949281957044,
          0.03276063032016956,
          0.08726087941108608,
          -0.02165228929386241,
          0.037774636096942996,
          0.02500598138429074,
          0.004965931191102093,
          -0.041768703282596895,
          0.08795200113620957,
          -0.053809226102177345,
          0.047656103948382704,
          -0.028042551209729427,
          0.048272151698242685
        ],
        [
          0.05781618917931235,
          -0.05026067870132907,
          0.036404768180860005,
          0.16071506463930033,
          0.04569689684421071,
          -0.005513901039042865,
          -0.08431225299512903,
          -0.07012826939338411,
          -0.08635202225274928,
          -0.054856813386588446,
          0.09050140575542374,
          -0.11827518806115016,
          -0.12364398744770398,
          -0.007252460521698891,
          -0.06714068375775414,
          -0.026251293667977106,
          -0.06481828246553702,
          0.002164017549649069,
          0.06657483412086375,
          -0.07243206895820849,
          -0.05227545554943821,
          0.09032546502305429,
          -0.018837151105830292,
          -0.03609924687415386,
          0.022379866281964193,
          0.0852509258644147,
          0.0674137248717209,
          -0.06758462291562031,
          -0.0732980322853333,
          -0.07338640802835171,
          0.07505964498048992,
          0.06133136273823634,
          0.0034010261661164627,
          -0.034941101579741236,
          0.05550530698961438,
          -0.019778984986156514,
          0.04889417056993929,
          -0.06804589012044883,
          0.06645155071201547,
          0.04433817624740334,
          -0.012284861037869858,
          0.03951691840809072,
          0.08206447919745131,
          -0.0042449771868163745,
          0.006997385190389131,
          -0.005099544020032548,
          0.0060701497526610085,
          0.036688402609727395,
          -0.04267766405974446,
          0.022238963172140774,
          0.003648568814164958,
          0.05996218155375905,
          0.030575448887697764,
          -0.013863489372306992,
          -0.06437290749556482,
          0.052554907191228566,
          0.08711390822034691,
          0.001063513919314263,
          -0.0372971476305692,
          -0.039908224197590755,
          -0.004664507367771547,
          0.05706237085069493,
          -0.01038179216824751,
          -0.025808986711711373,
          -0.07676583554223858,
          0.03078365875389907,
          -0.023398108294837464,
          0.03695871116771256,
          -0.04824729262107906,
          0.08440537215828756,
          0.009902446435670436,
          0.005529879986438972,
          0.04317832953810301,
          -0.057883740116712656,
          0.05442412083909211,
          -0.06659861726934894,
          0.06780154890776503,
          -0.034288095046676965,
          0.041141571209774165,
          0.05127817852267806,
          0.01512105067840004,
          -0.03649850020420412,
          -0.07420382835862004,
          -0.025502150468448354,
          -0.08633621746232506,
          -0.06045710831809471,
          -0.026341690835988668,
          -0.02115783031522806,
          -0.004314126502523628,
          0.04554233190884384,
          0.04367231579112245,
          0.00850735364035977,
          -0.0559597838715398,
          -0.07495147983874524,
          0.0011550521633917252,
          -0.04485430900482576,
          -0.07285670244746674,
          -0.01745342663771714,
          -0.037957417930047775,
          0.0717166115443346,
          0.012769931576535522,
          -0.01115159291951495,
          -0.012405517688812956,
          0.06026149069171867,
          0.06351912115153059,
          -0.06123468339858992,
          -0.038593536641896145,
          -0.07518862834981661,
          -0.09026909768763464,
          -0.024455910722586995,
          -0.07753853873564868,
          -0.04179939124535281,
          0.0012945010213312109,
          0.007313359031324148,
          0.05432110072473205,
          0.024606398753913863,
          -0.038732015891728235,
          -0.04368360259781115,
          0.04169285919774555,
          -0.08860881192415254,
          -0.08504274251585289,
          -0.020137491198935892,
          0.0072949110421642194,
          -0.006641500294431824,
          -0.01692462653042504,
          0.035929147864629585,
          0.06370273280721687,
          -0.05324110533864506,
          0.014957460887778858,
          -0.000323059882914484,
          0.025089529008424163,
          -0.05081877466688852,
          0.025387159918867953,
          -0.0433248376276889,
          -0.018871480977955053,
          -0.07317575051748156,
          0.03821280623145615,
          0.08622436024413044,
          0.030235928997047794,
          -0.06845263236688408,
          -0.07639225724067676,
          0.04508344026882673,
          0.05591682965544475,
          -0.004012665209241129,
          -0.020877118752830392,
          -0.060903877462216996,
          -0.07331231319886124,
          -0.07671043954614541,
          0.02444401395436107,
          -0.03047569849197204,
          -0.08034352959974306,
          -0.009077911054605583,
          -0.030944634532285475,
          -0.018653953891476203,
          -0.045818673910637445,
          -0.001694709200405386,
          -0.007320905132369551,
          -0.05510995486252554,
          0.02952572646910581,
          -0.0330664727598495,
          0.05918006764639689,
          0.03581329154282898,
          -0.00975101722549171,
          0.021828450507166215,
          -0.06058827064937653,
          0.051589324778108465,
          0.010775279992548282,
          0.058564759613127765,
          0.07222115546820519,
          0.0016615554295286866,
          -0.0069582176056135,
          -0.05773450230756515,
          -0.08283978497740621,
          -0.08115351643823043,
          0.020682912571537076,
          0.09724496468108905,
          -0.06594293457860423,
          0.023205681968695133,
          -0.0025230091367326236,
          0.05230043663096963,
          -0.07258090943921572,
          -0.05111996425323447,
          0.06021601325455331,
          0.029407676733520495,
          0.03167552858190944,
          0.06538617840771388,
          -0.050159320878649945,
          0.06266448225208343,
          0.0821888554547955,
          -0.03491731062440617,
          0.007623965537368888,
          -0.04825510641618799,
          -0.037591685478821156,
          0.0162374590889598,
          0.09108073797980316,
          0.058020350229683444,
          -0.07099603373537879,
          0.017081784118561042,
          -0.02004271892350594,
          -0.0015792595099957422,
          0.0010671217795506936,
          -0.048720165157435824,
          -0.07666613897793526,
          0.043152271077658316,
          -0.0917622067174448,
          -0.06603665140474871,
          -0.009863126786381462,
          -0.029201469827879675,
          0.027379957139179588,
          0.06535381539928657,
          0.03518613573806202,
          0.059211771178615424,
          -0.01719366025359496,
          0.04250179968443175,
          -0.08925188647367532,
          -0.023170953323153533,
          0.07281464848360127,
          0.004130993725261838,
          -0.06295128877611396,
          -0.053848791762353306,
          -0.05565960026112581,
          0.04513480197710352,
          0.13350551155681792,
          -0.12600242980824908,
          0.13457773996583422,
          0.11999946985676577,
          -0.05416421290920895,
          -0.08315543104153494,
          -0.02784084060836746,
          0.06849981426972676,
          -0.0497573364055015,
          -0.022342719493569797,
          -0.07573461111863797,
          0.04139038016048657,
          0.044142018348040844,
          0.06948598827427888,
          -0.09164606955911972
        ],
        [
          -0.06330692561165714,
          0.04045553947435358,
          0.09512862811514683,
          -0.08527000919548823,
          0.04532245912902765,
          -0.021964081788193326,
          -0.06176781608125641,
          -0.08336248814659418,
          -0.019166066625162445,
          0.033520285185318736,
          -0.08241418638965256,
          0.025526740377667567,
          -0.00930997250310858,
          -0.023814738371704308,
          -0.02349914801612925,
          0.061483726122568735,
          0.06786920066115276,
          -0.00005672704770245405,
          0.00024866631592877417,
          0.022585731323479286,
          0.02136854795055744,
          0.05958855428369522,
          -0.017639668110208274,
          -0.07193853283343342,
          0.06378294263185227,
          0.02427858664928832,
          0.08433318222910606,
          -0.05309362303787473,
          -0.022974220628400925,
          0.04838746603976871,
          0.025487699231033067,
          0.0005381869938212873,
          -0.014740825195408336,
          -0.003300592039699851,
          0.0675196932806109,
          -0.0632989601651292,
          0.04440853856936248,
          0.08451028649757812,
          -0.028419368964229932,
          -0.08449325664951912,
          -0.026224823007757234,
          -0.0824178757829703,
          -0.056175828120411,
          0.020787167159996085,
          0.025355819814233137,
          -0.0738048815730837,
          0.01377039253877514,
          -0.0597303413815172,
          -0.044962985210230726,
          -0.06166505749203538,
          0.08313489724911448,
          -0.07192843278396088,
          0.07280130948328012,
          0.010712592797099534,
          -0.022130520751835518,
          0.06965807081504158,
          0.06048168532327492,
          0.014065484073529562,
          0.02233006154686225,
          -0.06983016909776332,
          -0.07880980166122677,
          0.06355786179160244,
          0.06196709756172968,
          -0.052048877768659886,
          -0.015384024701878848,
          0.012400929795671835,
          -0.0068117128901643495,
          -0.07538366698489468,
          -0.05185947843130228,
          0.03257850503454084,
          -0.05955779150134563,
          -0.054575264349930444,
          0.07332643278995514,
          0.0504420244866658,
          -0.015456664560204733,
          -0.04069915163755955,
          0.05359144640819438,
          -0.0125017087907671,
          -0.08468584523391318,
          -0.04245073864630058,
          0.002398149665202714,
          -0.07779375838372656,
          -0.08609575259114374,
          0.04758890370311207,
          0.004320152593065716,
          -0.08794707775396039,
          0.01774733705574058,
          0.005755409840651168,
          0.054889835512103934,
          -0.028855313262213005,
          -0.0890468316625401,
          -0.04620261202656027,
          -0.07898258817453108,
          -0.005924727046963319,
          -0.06249594165863032,
          -0.06375739807754939,
          0.06170296528360467,
          0.05070085804280282,
          -0.07948556006028756,
          -0.07027737205645779,
          0.0069690539708902755,
          -0.02895674261625222,
          -0.031711424564386546,
          -0.03791226327570624,
          0.08412698169615657,
          -0.02139232177499283,
          -0.056730537446370126,
          0.0780200158699027,
          0.02647900032536717,
          -0.03845139108217538,
          0.07813612793475076,
          -0.052760591904256735,
          0.006146398290461414,
          0.07613874639437744,
          -0.03265484774245388,
          0.033338232189436975,
          -0.04219827753024214,
          -0.04185678780009621,
          -0.04239238001646739,
          0.055598730430890725,
          0.03777395876560516,
          0.056761349601672284,
          0.07178107525979095,
          -0.051578286083471016,
          0.044952849319050886,
          0.0740614007035126,
          -0.06354922602729864,
          0.06306227798339992,
          -0.08914350514701704,
          -0.026766326642836145,
          -0.01580003175124483,
          0.0902141855248224,
          0.014460501685052187,
          -0.025368793213622388,
          -0.03789359871155639,
          -0.05843156685685487,
          -0.002142140006058932,
          -0.07471898878505003,
          -0.05621992202005647,
          0.047262279389116146,
          0.07576104757147076,
          -0.05793317673540847,
          0.0036970428968892055,
          0.007208556411620108,
          -0.007122918639786736,
          -0.06186772271440235,
          0.049762160305712316,
          -0.02758973286549126,
          -0.000021307849394493496,
          0.07820145755291286,
          -0.06969166995463519,
          0.04965440738220515,
          0.06897992343842134,
          0.02449810857380011,
          -0.051347080287367224,
          -0.017811768762119033,
          0.06506437007077927,
          0.06873907470142916,
          0.0009356373764071957,
          -0.028740786168799885,
          -0.0525618960371778,
          0.08121379565622186,
          -0.08144574570795808,
          -0.013483213960965907,
          -0.052919635166231944,
          -0.018728727366036556,
          -0.05410967530865991,
          -0.07097284421657628,
          0.0560854616989172,
          -0.08804554146048227,
          -0.0337260883421219,
          -0.02801738928354811,
          -0.044755785682773636,
          -0.06746944626964002,
          -0.011043879884112442,
          0.0034575509806911028,
          0.057670086143179325,
          -0.04786486501408067,
          0.09114165358102005,
          0.027893435139955753,
          -0.06684483568330202,
          0.0876813346728077,
          0.01751647605048322,
          -0.013294851678850977,
          -0.0673741596825931,
          0.06671302007563062,
          -0.05685504619581723,
          -0.042391272114134744,
          0.020898061897771367,
          -0.02565993432048527,
          0.051418342852188124,
          -0.004915646130927598,
          -0.0019556056003512674,
          -0.08543075344208843,
          0.0521586535324646,
          0.03800049361556572,
          0.06908941351811154,
          0.06583387709156033,
          0.03440848056619672,
          -0.06562686545365941,
          -0.07501350418635347,
          0.020278139150893534,
          0.052972666187906935,
          0.06158951153118496,
          0.03925426009998027,
          0.06252903857285655,
          0.07573903469468105,
          -0.03392338110481514,
          -0.032245435039741026,
          0.06658196099337758,
          0.03291273497217002,
          -0.060705239535714814,
          0.02230660478736466,
          -0.014184175321931067,
          0.02540351773622515,
          -0.07526996131758465,
          -0.0019522406325290498,
          0.08019464720714793,
          0.05807079000946129,
          -0.08870935084922463,
          0.054776146291423695,
          -0.013119630432631172,
          -0.05201983240646733,
          0.051094450555905335,
          -0.07611544591254522,
          0.0648774753196776,
          -0.07669229249942783,
          -0.0530246983843035,
          -0.018887378672733872,
          -0.03883585277484955,
          -0.06747589662672766,
          -0.0005567450524415447,
          0.024742721029514417,
          0.035081572042353557,
          -0.0027326941942752737,
          -0.026328687426823438,
          0.0728556194986147
        ],
        [
          0.11338722437392736,
          0.0786235123446511,
          0.009604848239625019,
          -0.12298880754340634,
          -0.06162345470414646,
          0.1250445092284202,
          0.04635320535185061,
          0.031153455448855675,
          0.1486133287603496,
          0.11689964591437035,
          0.07231430160880493,
          0.11053388885403721,
          0.14052255869494018,
          -0.06202355481055075,
          0.08409337127845946,
          -0.007928642356434304,
          -0.033088096374780725,
          -0.020672944916878138,
          -0.022457600589005856,
          -0.03589212547031032,
          0.03426844728516413,
          -0.0076473999384724795,
          0.0034185972295714367,
          -0.011884136723058563,
          0.024596120057730236,
          0.007615246046047255,
          -0.029499115709372907,
          0.03914862231500708,
          0.06327600569390061,
          0.04068588514435951,
          0.006995942063405384,
          -0.0765148050663913,
          -0.07440487915517226,
          0.05183382139081299,
          0.059253356814464246,
          -0.0021552017103727327,
          0.007700446404932089,
          -0.023301102322217316,
          0.06709989005366516,
          0.01366342421604695,
          0.022990980510417886,
          -0.010399009208732438,
          0.08702770739152207,
          0.08546805941086714,
          0.00919120205460694,
          -0.0011729423936894256,
          -0.07665364692067646,
          0.06910544895810956,
          0.07803639998380367,
          0.05030085594516897,
          0.025290717573776152,
          0.03575198079780673,
          0.08612168488525011,
          -0.04562192072972496,
          -0.01496990265383947,
          -0.0161631068737753,
          0.04431414071424882,
          -0.05615320431587628,
          0.04137617175914522,
          0.026477761297819244,
          0.023523567216758197,
          -0.08221162810063029,
          0.036805479024015895,
          0.027425224340143693,
          -0.09009743166716701,
          0.010041218135572936,
          0.09012631931697769,
          0.04671666160529505,
          -0.014986818372695469,
          0.0003698275119245865,
          -0.02387264289118434,
          0.06632418346255525,
          0.0651772481968354,
          -0.040395913254010735,
          -0.0022276086048157178,
          -0.060453475818237574,
          0.08643562001551763,
          -0.08908998363327571,
          -0.06508650223872423,
          0.006052730670251997,
          -0.09134962068130327,
          -0.05454558030690169,
          0.058351090923356844,
          -0.07629631724763922,
          -0.08908041423288003,
          0.05270985347451226,
          -0.020286223043561855,
          -0.0056384594522521534,
          -0.050536983836343995,
          0.08555938798197456,
          0.0238064263983144,
          0.028308240294496027,
          -0.06999547145961355,
          0.009389418954,
          -0.04607123914827898,
          0.08702035761632172,
          -0.006867283382948253,
          -0.0757381145700186,
          -0.030989953127136725,
          0.04131642356758847,
          -0.05795532513288348,
          -0.011222838150231078,
          -0.04622917314074951,
          0.07578266815107153,
          0.056611699172901285,
          0.04829679249731066,
          0.0754234654140248,
          -0.030882144279742584,
          0.027915280636704037,
          -0.04313208367518332,
          -0.05862930438630624,
          0.025724479007890915,
          -0.04150989422488444,
          0.024487071810748103,
          -0.05876104071510897,
          0.0684715276173176,
          0.026907142413055574,
          -0.04278711838257071,
          -0.07112114790178393,
          -0.020701078718537415,
          0.012438322708949592,
          -0.024593495776073553,
          0.033448273557441684,
          0.08807884298285135,
          -0.06468794111514417,
          0.0767239925637303,
          0.08662571595262328,
          0.045871081813489915,
          -0.0020902008461749885,
          0.004576895767416537,
          0.03404163988720224,
          -0.07292373956535263,
          -0.05499058845208049,
          -0.06282260037114626,
          -0.08815916127559897,
          0.04016934876025379,
          -0.0833034644123258,
          -0.06979118234721252,
          -0.06073704675902965,
          -0.08647656396780218,
          -0.04794083072090684,
          0.06330790928595648,
          0.009445530502439828,
          0.07766660950870616,
          -0.06161220096724144,
          0.05318015121875021,
          0.03553085161177825,
          0.061463283143916705,
          -0.01411006964016865,
          -0.07647963628785304,
          0.058036879128651006,
          0.03338343269587504,
          -0.0829648597354651,
          -0.07284603420074034,
          -0.07707879072122338,
          0.05363186100984588,
          0.06481935856284203,
          0.012121679732574572,
          0.04439056485602327,
          0.056368634153774494,
          0.04120528734668462,
          0.0653491937585995,
          0.03456818415439049,
          -0.0741758338455124,
          -0.05411878727375469,
          -0.0812005097938002,
          0.040527437959668705,
          0.07190282820263497,
          -0.017979814207301544,
          0.09128841436324815,
          0.042628804234235165,
          -0.06170425558884768,
          -0.04053472814292171,
          0.04731695081695217,
          -0.02835046267577661,
          0.10354560394430438,
          0.029380990783862016,
          0.08025600551692795,
          0.0635337511359855,
          -0.04710752899073411,
          -0.09513004036597059,
          -0.04727422707578116,
          0.052320997914642134,
          0.020668723605479222,
          0.024234522316691147,
          -0.03375541181259839,
          0.009358422812083942,
          0.03720026389453689,
          0.0200254641788302,
          0.01685744103960022,
          0.028475233459559487,
          0.049205791374920045,
          0.02807520191963884,
          0.09128028375522039,
          -0.08832139194223482,
          -0.02861083055208313,
          -0.025271370859578667,
          -0.043190963066921086,
          0.0711704552319981,
          0.07827206647874063,
          -0.046338708290890866,
          -0.030866536403839052,
          0.03466129330558001,
          -0.011907311111165957,
          -0.014006929119165307,
          -0.03687885764221282,
          -0.0676293969826068,
          -0.02801049377958036,
          -0.038537354089128034,
          0.053804490039692,
          -0.07883401454808281,
          0.01567070648001216,
          -0.08175266538171795,
          0.0004440952085905088,
          -0.07706559871722207,
          -0.0386017174413828,
          -0.08140295600788651,
          0.03644949870391609,
          0.07132933801177842,
          0.09026684017096975,
          0.025920156854190142,
          -0.0728131547085754,
          0.026415915623051067,
          0.03767494985917428,
          -0.05102794109281759,
          -0.1378249903182536,
          0.10176818960064392,
          0.1810894361838001,
          0.04886613757526175,
          -0.0034320213706846426,
          -0.046245501092537514,
          -0.0776429597044342,
          -0.04497358840351352,
          0.01530613143527258,
          -0.053057119188731156,
          0.08721632493528367,
          0.009108804063869849
        ],
        [
          0.08579570217436619,
          0.06115688297088575,
          -0.007937566975581508,
          -0.1883378330486495,
          0.082304832852015,
          0.011576467215047632,
          -0.011690829316039226,
          0.0351278648172102,
          0.07557451892228118,
          -0.05425498365812271,
          0.0010945366578732547,
          -0.039962691436437395,
          -0.05375525273825459,
          -0.0549925437517621,
          -0.060028834419958085,
          0.04433171152104142,
          0.015128722551337768,
          -0.082592176571091,
          -0.0373493691841537,
          0.08642001524252195,
          -0.018583720451777797,
          0.08944125043440217,
          0.07196958068212815,
          -0.060194683701044575,
          -0.041814467980799,
          0.05410766669593949,
          0.07151200595056588,
          0.0034154025529826233,
          0.0673020050012107,
          -0.006053075031463339,
          -0.024880292191155153,
          -0.08950739433911042,
          -0.06335105745134686,
          -0.05766949367976896,
          -0.05359849782196981,
          0.0238812119068095,
          0.07317479486182732,
          0.007031452928594912,
          0.01564653299083077,
          0.0010227114459274533,
          0.05220750230331331,
          0.042324530253721,
          0.0863897494440856,
          -0.0840378051574588,
          0.029556361899507028,
          -0.0400125905199324,
          -0.05322622140876571,
          -0.01273442649167105,
          -0.01965781668916831,
          -0.0874616120343756,
          -0.030071462027090993,
          -0.0791652965899973,
          0.030428259389086387,
          0.03456527274537383,
          0.06611668771663692,
          -0.04407811985412532,
          0.0007147435020068071,
          -0.05564760578665913,
          -0.012427726374331632,
          0.02867741941271163,
          -0.049919954136171216,
          -0.08381809057138048,
          -0.000055309373070951636,
          -0.09144808294033123,
          -0.07506115009143736,
          0.01158397687637361,
          -0.04332636961582705,
          -0.010425285618311063,
          -0.0768342243871919,
          -0.0900064724034531,
          0.010924323686100199,
          0.06405327642830436,
          0.016989211004520617,
          -0.07151868652998565,
          -0.00272210421910482,
          -0.05206660223066133,
          -0.006237694074852875,
          0.06992235272656287,
          -0.058457277336807244,
          -0.032465699361615946,
          0.03536529787814409,
          -0.02608697034994831,
          -0.03378566024130862,
          -0.0868579996036687,
          0.01540064762968166,
          -0.07490996693087021,
          0.05720285524261523,
          -0.08872702881954003,
          0.021701163253984395,
          0.06719662725797616,
          -0.08291866320785035,
          -0.004896189048571866,
          -0.08182899143476331,
          -0.04885950828429848,
          0.01154733161204793,
          0.07372867520267377,
          -0.055145094343623996,
          0.0390806660357831,
          -0.005175296886764242,
          0.05559218053705888,
          0.014386845132086086,
          0.012122874118351739,
          -0.005536603592287464,
          -0.019124472938732,
          -0.04708453691115373,
          -0.06728062029122236,
          0.0349674040716315,
          -0.04258836260392173,
          0.056505246514083625,
          0.04336128554823721,
          -0.07314449824275626,
          0.06144482271785531,
          -0.07496566600518159,
          0.0505408706667994,
          -0.08484371970391488,
          -0.0012495738031626173,
          -0.0009110544122713689,
          -0.04286320591839475,
          -0.06865454528540435,
          -0.07303073689049898,
          -0.06483514531235454,
          0.004841623774681818,
          0.009695641464059362,
          0.009557443210555395,
          -0.012410950045554115,
          -0.014963282822146616,
          -0.07489292096632123,
          0.07144151514470594,
          -0.05885262354687107,
          -0.00657431283805794,
          0.08885333797660243,
          0.012503833066218767,
          -0.07507988372383555,
          -0.08019421135486285,
          0.005191775437224525,
          0.003035386165021797,
          0.016262346926549126,
          -0.005925714623029268,
          -0.01004393724288785,
          0.07297112837453239,
          0.0009697912588466026,
          -0.05133650807581382,
          -0.024837414020070368,
          0.0486115484573136,
          -0.07329258536729485,
          0.0003724346232036921,
          -0.06175142516052224,
          -0.01126933937724702,
          -0.07376606487154294,
          -0.06632366463697768,
          0.028826990626301226,
          -0.035662998920090866,
          -0.062301221223121456,
          0.039633211184321386,
          0.07144169434588273,
          -0.05931660871064546,
          0.029522081878844593,
          0.07755230062988283,
          0.04236871675285045,
          0.019659932681239868,
          0.08276925727715535,
          0.06214641430391673,
          -0.0027222104177068627,
          -0.05723040135419553,
          0.06512836116263493,
          -0.03641731425286116,
          -0.015895913145224823,
          -0.08939006617333752,
          0.09149044953757834,
          -0.01761291721666769,
          0.08090353199016334,
          -0.011327655168282356,
          -0.015026476181793492,
          -0.0468567373704126,
          -0.07241254225326343,
          -0.035355109263658153,
          0.009267791169561671,
          -0.021115517520601576,
          0.054664250764535384,
          0.06259056002380274,
          0.007200501987861878,
          -0.01654923785638327,
          -0.06609775714161109,
          0.021397638598484068,
          0.02194705815373729,
          -0.04798761874297496,
          0.03022095538275967,
          -0.059392204378750195,
          -0.054803815277511804,
          -0.051019807179866886,
          0.08733623225944197,
          0.020899084527685834,
          0.0038796224178223124,
          -0.002426868863742372,
          -0.03771001203300258,
          -0.03793117991837141,
          -0.08064531513468136,
          -0.07579812699269534,
          -0.08006052618671385,
          0.0408096034676032,
          -0.02060221317220642,
          0.023729011716970907,
          -0.07404229777821203,
          -0.07748130060773727,
          -0.04133345244558348,
          0.0756795901913001,
          -0.07142324782338491,
          -0.06729916208040762,
          -0.015889763411530124,
          -0.006023732704254315,
          -0.02110617641987464,
          -0.0012495247572124311,
          0.08523715614185028,
          -0.045708403459392304,
          -0.013735466607139552,
          -0.041892147618754656,
          0.08896820820143808,
          0.08491320339350986,
          0.06063686938433785,
          -0.019190560096697434,
          0.047423555644646634,
          0.051236161361310005,
          0.08156595631365299,
          0.030763805701522536,
          -0.014054446958524194,
          0.0074441354263325415,
          0.07755778980122063,
          0.02674495521545975,
          -0.01824687895778423,
          0.06488164846924825,
          -0.06557932426682475,
          0.020034668964758327,
          -0.016355637278229637,
          -0.08791855293820137,
          -0.040916136405388284,
          -0.07312690072144917,
          -0.005253489385693878
        ],
        [
          0.06041592904272837,
          0.00344263430270021,
          0.07117191948037846,
          -0.05044454907892341,
          0.05592238748013104,
          0.030489578942328885,
          -0.009020506602875983,
          -0.019576281252154454,
          0.1410564204326015,
          0.19864015502557933,
          -0.05138285627152364,
          0.0010511331696990117,
          0.1384775405390979,
          -0.05255528258604758,
          -0.019060111700972538,
          -0.07381336285295347,
          -0.04539207067476628,
          -0.022033182101999556,
          0.03173565124549652,
          0.080650629519778,
          0.030429026724035236,
          -0.021675863287611116,
          -0.020600622464356715,
          0.004888617895910506,
          -0.0672479713257005,
          -0.08773885210202972,
          0.039127632893702975,
          0.09108247735337664,
          0.07165305843789188,
          -0.042899599973129275,
          0.05529956390550475,
          -0.060952680374354334,
          0.04993865588294474,
          -0.054348700471697466,
          0.033079478935520705,
          -0.08767123384308201,
          0.0026392913764146705,
          0.08942884632678406,
          0.0039204809131186,
          -0.08936665998479895,
          -0.052229158447915036,
          -0.08455051943715353,
          0.081326155310236,
          -0.07978011437097644,
          -0.07763717740055187,
          -0.049312749175137005,
          0.08554557487045657,
          -0.005315484129215622,
          0.06443038506683052,
          0.041065403585929965,
          -0.01887997689150084,
          0.0828421351820808,
          0.03384804838762175,
          0.052574108574093205,
          -0.051245319716526544,
          -0.078922035455367,
          -0.03162079560241271,
          0.051440327126790523,
          0.024244475535141065,
          0.084718444132986,
          -0.08656309322376189,
          -0.06629564213584334,
          0.08612555573886739,
          0.03259376288555886,
          -0.010578672614974324,
          -0.009644569576508749,
          -0.09073747272922073,
          0.03255004143375167,
          -0.03525478090317442,
          -0.0446843757204717,
          0.022096344402667802,
          -0.08114336960619523,
          -0.08799717371431122,
          0.02454696780116408,
          -0.03489214964815921,
          0.03894219770673616,
          -0.027722851998608262,
          0.06399256140338724,
          0.0019993222680424355,
          -0.05768377603983869,
          0.011661204362626696,
          -0.04187309630406907,
          -0.016429109471931682,
          -0.04688330720611365,
          0.003741996727820996,
          -0.07899755013490113,
          -0.023623807569981625,
          0.016239448898803664,
          -0.09083144788742482,
          0.005678441968465559,
          0.010141437393612325,
          -0.06610013313680432,
          -0.06351314113224997,
          -0.002033210525713007,
          0.05517507804444789,
          -0.06971469194154847,
          -0.014467610794912822,
          0.07538565382148918,
          0.025493180375171932,
          -0.04910362495328098,
          0.053506354712224695,
          -0.0038427695874997487,
          -0.05121012034898995,
          -0.07394780555821587,
          0.04024066751529158,
          -0.018511922021951677,
          -0.0727422784822965,
          0.05055806632105237,
          -0.0855530777138146,
          -0.06816914206252025,
          0.03572814266132003,
          0.029959211039976993,
          0.026935137951950607,
          0.02018410673068992,
          -0.015734082592718884,
          0.08270051644872436,
          0.015462110357022775,
          0.02725471740817835,
          0.0050227866218466154,
          0.04705752718915949,
          -0.07757941140555079,
          -0.0023250574578895194,
          0.03924385799828497,
          -0.053667633438963386,
          -0.047415993650310635,
          0.001360171582128546,
          0.024824366331763194,
          0.020348393947140674,
          0.0918479612465756,
          0.04628922817875958,
          0.04594070052609365,
          0.055771766820906815,
          0.04868766763897053,
          -0.02900679968145228,
          -0.002706234828936609,
          -0.05594094047930472,
          -0.073570274757786,
          0.06471601976359592,
          -0.03581843160259818,
          -0.047623055255701804,
          0.05197473624683968,
          0.0031447771198874594,
          0.061401807836834944,
          -0.037566671638026884,
          0.07839683164309237,
          0.05941798848777104,
          0.04318925313593042,
          0.00008235849753654815,
          -0.07029761378776686,
          0.07248074178799231,
          -0.011861689348107,
          0.04155611350995371,
          -0.02168532634039899,
          0.07507683696836989,
          0.0067639475746765244,
          -0.07801917076322773,
          0.02983010160462826,
          0.039470274470441935,
          -0.06299061621470392,
          -0.06957446918057128,
          0.07937404425349091,
          0.06597704036171372,
          0.06883502069847743,
          -0.05441717522541512,
          0.08232422315419018,
          -0.05862501844580393,
          -0.07836225141917687,
          0.012516831746821083,
          -0.07799574742105975,
          0.02693184579072067,
          -0.025303640475581837,
          -0.01639666132173545,
          0.04908316366322604,
          -0.04249359472600722,
          0.01784837152252376,
          0.05505483178907742,
          0.09181163037099926,
          -0.06877334305610808,
          0.02704131309995092,
          0.07848076166294983,
          0.06797226964570292,
          -0.014268567535553235,
          0.08157478525404445,
          -0.0401488043381439,
          0.05375574088571592,
          -0.005904432465290071,
          -0.05071359262420629,
          0.03576424855807215,
          0.041322968038940595,
          -0.07117677345408126,
          0.07382760716013478,
          0.06780704832314838,
          -0.0681070291312453,
          -0.08373267694931483,
          -0.08416001262098034,
          -0.07398002633420891,
          0.004333499780196705,
          -0.005129333916977775,
          -0.0012071727275101347,
          0.09082920890994552,
          -0.056670063136834765,
          0.01312075606825633,
          -0.04618535538754649,
          0.07652488975889836,
          -0.03247080137410662,
          -0.08801274045849825,
          0.020892040347752435,
          -0.04890314776429574,
          -0.03112449894545712,
          -0.005312664265249277,
          0.05428580257605312,
          0.08365305841774372,
          -0.02456584424946124,
          -0.09117202360515889,
          -0.048255748919144276,
          -0.047203293041619396,
          0.07200606044778549,
          0.044922919486193015,
          0.005609889092115376,
          -0.014520148809854604,
          0.08898523633841458,
          0.0871397384223856,
          -0.02926325492695287,
          0.00009924892233534292,
          -0.014903183840505286,
          0.0050511345902538645,
          0.03805152034066608,
          0.16378208438396116,
          0.07896023318539445,
          0.0045013375000027625,
          -0.04888946030202269,
          0.022909571439813897,
          0.05861997430164307,
          0.05352644824433069,
          0.02174412897740122,
          0.012563120311817406,
          0.0351622543734411
        ],
        [
          -0.0405311441754191,
          0.07445027220625451,
          -0.023737001462004456,
          -0.047861352507608056,
          -0.0854741956502175,
          -0.07572821465406211,
          -0.08025213649932879,
          0.032262745048501455,
          -0.012444728870740978,
          -0.07560409044167636,
          -0.004976245211441738,
          0.006892838387551282,
          -0.05371081212845982,
          0.024851230669691714,
          0.0262870329626809,
          0.015607994921252491,
          0.02308190521026523,
          -0.0674825351562949,
          0.08805568670437706,
          0.0025153434258989625,
          0.06125361025094308,
          0.01399063837319384,
          0.03795799147760291,
          -0.024277273094027173,
          -0.0036819325702515926,
          0.011252959367814225,
          -0.07900269366019123,
          -0.017999897262050448,
          0.015059196563729452,
          -0.06946684215937911,
          0.083893396724018,
          -0.08224855728210725,
          -0.03214331669481588,
          -0.08034543382895304,
          0.07666592556316996,
          -0.08472013523860161,
          -0.051043115792690816,
          -0.07881809455091286,
          -0.07091030472918236,
          0.060664799384048194,
          -0.03732813131367004,
          0.0032442347569264784,
          0.06862645823237498,
          0.07898580865526618,
          -0.0003298214191121313,
          -0.02627575551733746,
          0.019107752387254796,
          0.08132934365581955,
          -0.03566995355587116,
          0.006337225305809268,
          0.04660691722231261,
          0.03867312720249667,
          -0.008987084627207154,
          -0.0835315345578112,
          0.06927838113688956,
          -0.023212938582321128,
          -0.06678466699159702,
          0.08617606082003816,
          0.07003245271526667,
          -0.045643429806785485,
          -0.006509042928223312,
          -0.04220738817664142,
          0.015823433640484875,
          -0.06978398073553327,
          -0.014526888207735456,
          -0.0027173261495440065,
          0.02085343866868208,
          -0.048196234389711864,
          0.038988608466914654,
          -0.06275370982273201,
          -0.08811874304626126,
          -0.008620757177321256,
          -0.008428236397706002,
          -0.02047677354274092,
          -0.023672271536710237,
          0.08671208530501401,
          0.014375421601743328,
          0.05696883247232296,
          0.045221683270530826,
          -0.026966643871043187,
          0.0074059958592241236,
          0.049939553992486625,
          -0.017593564794755493,
          0.0017981490045366358,
          -0.01961784044114449,
          -0.00037469311134408835,
          -0.08535337974681985,
          -0.024404959846715615,
          -0.08242251565919748,
          -0.03694328628993173,
          -0.03217248785895109,
          0.08985765377768916,
          -0.05234836442194601,
          0.008013853110046423,
          0.0033983125505438905,
          0.002973688973087466,
          0.04946464029548313,
          0.03125959661748469,
          -0.0596279027898608,
          0.028879015741556935,
          0.08351868749024718,
          -0.09078283221215153,
          0.042986638788007174,
          0.05329015619181386,
          0.04347345302145365,
          0.022885451796530544,
          0.04010237654627091,
          -0.0896213606042858,
          -0.04846377389690522,
          -0.03154305017333478,
          0.03315382345231596,
          -0.050030463640110406,
          0.08071900985209587,
          -0.0833875803656339,
          -0.036884292880529086,
          -0.08543334505532256,
          0.02869144240783097,
          -0.08936145978394157,
          0.07726858335948868,
          0.0013830255113613035,
          0.046189486121386264,
          0.03838447324629284,
          -0.0010228900175008203,
          -0.014484908591103933,
          0.07271455451690487,
          -0.05980834447924852,
          -0.025907693566779504,
          -0.0734896653052868,
          -0.06342661983858931,
          -0.08189894873381234,
          -0.08197248222327393,
          0.04681261896193989,
          0.016930474738795546,
          0.06578934382375554,
          -0.05026033036770835,
          0.060163796020219325,
          0.06168505725738178,
          -0.06499101568819887,
          0.06639072677669698,
          -0.038001994133146214,
          -0.06120147128392819,
          0.05139920630650387,
          -0.015924703102005878,
          -0.005656918798189999,
          0.05919016707879529,
          0.08415209386745506,
          0.017040356329510176,
          0.07542812493281582,
          0.0647952818397358,
          0.03169668476382015,
          -0.06706939445632104,
          -0.0785817987042062,
          -0.059712329008953874,
          0.05055474635189969,
          -0.0695933931848214,
          0.023563356519717974,
          -0.009192256760076208,
          0.02668094107677721,
          -0.052020238087057954,
          -0.056233784875030404,
          0.046752048487211526,
          -0.046749687022943236,
          -0.012116766093699808,
          0.08495374808286116,
          -0.03280351900279598,
          -0.020016261167965316,
          -0.002810183353012103,
          0.05996251093992563,
          -0.02815905308372007,
          0.06958093982050653,
          0.06675884510243965,
          -0.0679250359092005,
          -0.08596188980023266,
          0.0422383207897583,
          0.04629258917933088,
          -0.006111190466538281,
          -0.07683339918714872,
          -0.08516687696744413,
          -0.0575981308568672,
          -0.01966227858056827,
          0.057329510305552,
          -0.07422500296514054,
          -0.03785984517541556,
          0.009620731936823251,
          0.027541065976830204,
          -0.006511108619232731,
          0.00041527582171848264,
          -0.020866124274269218,
          0.044636654548533806,
          0.019396990651841455,
          -0.026867968546913992,
          -0.0030280272911021775,
          0.004336362825340508,
          0.07634311992467731,
          -0.007034766185325022,
          0.06416381729734132,
          -0.02562102117593787,
          0.055930262568079384,
          -0.08422196776959044,
          0.05582336544372261,
          0.0066428546704948395,
          0.0824332507575857,
          -0.06991690870369156,
          -0.041912068212372734,
          -0.07860412051830377,
          0.06881366284975902,
          0.08708801303995015,
          -0.08789643244858517,
          0.07928505337225102,
          -0.017378381277501725,
          0.011700788500644635,
          -0.03548136954932664,
          -0.01784792148068224,
          0.03908970268618419,
          -0.06304876238758242,
          -0.07625713790039046,
          -0.0006276718177416371,
          0.043093195526442266,
          -0.07488667665509204,
          0.03275438472404196,
          -0.06384655644441622,
          -0.029709871238569316,
          -0.011937378260231857,
          -0.06143175232888989,
          0.04352223716455878,
          0.050883873993763366,
          -0.0180999140368811,
          0.04629572230970334,
          0.061466474864695336,
          0.08854966200249738,
          0.05632842900299493,
          0.08776677470130824,
          0.044467362463119275,
          0.005951692280906592,
          -0.06511557458072258,
          0.05247458046586238,
          0.029462526519989454
        ],
        [
          -0.05912738598550003,
          -0.071298150282089,
          0.020996797035059304,
          0.06688299296168347,
          -0.08440640184827627,
          -0.08260556977730618,
          0.0112985071435319,
          0.07743265576920022,
          -0.04524656709647002,
          0.05123139002042025,
          -0.08067161436393641,
          0.0004954705038326569,
          0.07729408646195139,
          0.02514905261396162,
          -0.07698935138365333,
          0.05715658035840197,
          0.07784370236381163,
          -0.06911835655175443,
          0.04484596432056948,
          0.02444676129149754,
          -0.07274116317941022,
          0.048931990583744825,
          -0.065142816468604,
          -0.010181046514475689,
          -0.08639211445954537,
          -0.008485396092619555,
          0.054890582847625255,
          -0.056117784480275955,
          0.043053627342419604,
          -0.010167993307709755,
          -0.06166394631505738,
          0.03371853941896853,
          -0.06366690078082267,
          -0.045023591025307036,
          -0.06819750255344735,
          0.03886555083540276,
          -0.05813873435795717,
          0.06227952813715156,
          -0.017466333228161,
