{
  "format": "pyoro-policy-v1",
  "modeKey": "pyoro2",
  "observationSize": 237,
  "actionSize": 6,
  "actions": [
    "idle",
    "left",
    "right",
    "ability",
    "leftAbility",
    "rightAbility"
  ],
  "layers": [
    {
      "inputSize": 237,
      "outputSize": 128,
      "activation": "relu",
      "weights": [
        [
          -0.057981778428184444,
          -0.03774088129650815,
          0.0627469428451574,
          0.048172865399073596,
          -0.012556113919835297,
          -0.018824489124186425,
          0.004812025922478193,
          0.010552379136253637,
          0.011589598994252593,
          0.008587291493124725,
          0.031942548579656005,
          -0.056827624704259734,
          -0.008244027928563265,
          -0.0192662418747216,
          -0.05456514976376469,
          0.054719864903033225,
          0.012118188254822256,
          0.07834335502209322,
          0.024064587463766423,
          -0.07606791811588279,
          -0.055208793766758725,
          -0.0533780934833896,
          -0.008722639491660245,
          -0.038515550999611195,
          -0.01622785227329316,
          0.04256014361180548,
          0.041641172239764004,
          -0.05759473305680395,
          -0.06936775918926166,
          0.0319757640310968,
          -0.05835351854535477,
          0.04484273698775147,
          -0.05494153490711766,
          0.055233409791239814,
          -0.08557406037310178,
          0.011805020203570292,
          -0.01177283477935843,
          -0.020774852118048207,
          -0.042010977383619114,
          -0.0899233775743663,
          -0.06573219301407819,
          -0.045463327892874925,
          -0.03226251988122104,
          0.012578791885888143,
          -0.038091805210892005,
          0.012779885120510568,
          -0.01033135356807215,
          -0.005173307779286672,
          0.06601921322001494,
          0.08398616858519037,
          0.03408780590971717,
          -0.08383231069363699,
          -0.06253855051869979,
          -0.04423692208469676,
          -0.06863997082201613,
          -0.06792765804103723,
          -0.04417597516532331,
          -0.031479922564864295,
          -0.04980973899161491,
          -0.06318355771060422,
          -0.06280499160702835,
          0.04290629060515877,
          0.00707555907452603,
          0.004377427593917611,
          0.01811846518338592,
          0.0129207184604246,
          -0.08204290852142065,
          -0.05940857749269276,
          -0.04314122944643547,
          0.0613079770703909,
          -0.05067706988731257,
          -0.04000797059717201,
          0.004706794192568669,
          0.019248465481366165,
          0.01818561428023693,
          0.04558640293530573,
          0.06505582391261155,
          -0.06612553801898953,
          0.06786384213135506,
          0.026646514935160567,
          -0.034264548957533225,
          -0.018654992325157035,
          0.05141188555887171,
          0.06188026879120275,
          0.08655151080601424,
          0.026531131637300486,
          0.015764793949930345,
          -0.00236216757026137,
          -0.028114081098570533,
          -0.08895926281115092,
          -0.022638581689965895,
          0.024957074788211867,
          0.07413342773218157,
          -0.029572101965443146,
          0.02121351249607339,
          -0.05767823649605065,
          -0.05833598681300158,
          -0.0014633758084492564,
          0.05855949482518117,
          0.07685776160960259,
          -0.0809061179275706,
          -0.08621434703592319,
          -0.002650894712499823,
          0.029078118151644853,
          0.008406253221311772,
          0.03354304242584052,
          -0.02431571201998126,
          0.035637281650016624,
          -0.00691201259072988,
          -0.01694492995954989,
          0.03240465113052801,
          -0.07227785287470469,
          0.04195771678180606,
          -0.08129155884624968,
          -0.06911626557563175,
          -0.015125427119179222,
          0.03505760491158027,
          0.01919732230211321,
          0.0152470910809875,
          -0.06188904689679309,
          0.0357852086048419,
          -0.006009009926300603,
          0.050663316467933844,
          -0.044921364847631796,
          -0.017039887676193452,
          -0.01358694087142887,
          0.070492138428758,
          -0.07107721106998259,
          -0.052215720165604246,
          -0.010277112211428132,
          0.03624417170139212,
          0.07228475257050519,
          -0.01916696806420909,
          0.06400139618159714,
          -0.025337583082054572,
          -0.02268303794875635,
          0.07339534486804894,
          0.05623582758821837,
          -0.024015701696500816,
          -0.07606232886490842,
          0.0018220646796702632,
          -0.07176719711441244,
          -0.03826650474351754,
          0.036056129990572346,
          0.028051949849166313,
          -0.0013007710793238654,
          -0.0754800978626853,
          0.015924093116467246,
          -0.03415968534999949,
          -0.0869978548195104,
          0.05661608555541499,
          -0.07755108873318517,
          0.04972563729832537,
          -0.03804372380911781,
          0.0638427903946023,
          -0.07258251533125769,
          -0.051474743626387647,
          -0.05065373941982212,
          0.025370594555965555,
          -0.027369945210455996,
          0.06088197570756324,
          -0.039127646069038256,
          0.06093865347608958,
          0.06315012637424075,
          -0.04867711919822409,
          -0.06833039009728148,
          0.04884565368108387,
          0.05413178029106247,
          0.03566704574226412,
          0.022356766283168655,
          0.0008081732589075448,
          0.029924474863985695,
          -0.0793742576214178,
          0.06753473780241774,
          0.06197712377697098,
          -0.06721829591978438,
          -0.032807807237552236,
          -0.0874207544012585,
          -0.0015018742540953446,
          -0.0805017262864849,
          0.02515585055222499,
          -0.004737770022366747,
          0.09090544739593044,
          -0.020223957361710294,
          0.012695205867047856,
          -0.0876050732722728,
          0.06901937320931818,
          -0.05418948297905271,
          -0.009542165838846667,
          -0.024684347760503687,
          0.033376501040158456,
          -0.0810155906328989,
          -0.04164098839396238,
          -0.0557829698246437,
          -0.03219508014661723,
          0.02961292615732934,
          0.08429746678750312,
          -0.011717876887875218,
          -0.049702006370246826,
          -0.030016422279496562,
          0.05966506023413074,
          -0.0035005141698098,
          0.06703404487493986,
          -0.05056722734085946,
          -0.015725968324953935,
          0.03870989429134982,
          -0.04047954877922911,
          0.003965610295092967,
          0.006426513652987271,
          0.062198845588949746,
          -0.02508873732912507,
          -0.025495803368281535,
          0.053401235354042495,
          0.08800069172738892,
          0.028157517131460783,
          0.04715881721631332,
          0.05908454499062858,
          -0.04850674189704936,
          -0.030506773626567955,
          0.06424426317803174,
          -0.002248048085904979,
          -0.028323732670377053,
          0.0812488370101281,
          0.018918018191051187,
          0.037278757386365505,
          -0.08314000743978929,
          0.01826677659681258,
          0.0276022475888592,
          0.07179830491676602,
          -0.01888857230057362,
          -0.019116133175603903,
          0.08783694253365995,
          -0.04940815472442811,
          0.04219219170580761,
          0.029446936115082277,
          -0.01816010764549673,
          -0.01710766254817186
        ],
        [
          0.05917976456761672,
          -0.055846811879980245,
          -0.06561814654192487,
          0.09776284492788397,
          0.09050817429464289,
          0.022857266523246676,
          0.07869750247374438,
          -0.015497728434295291,
          0.09019588100805018,
          -0.06140976716970822,
          -0.027981555426476564,
          -0.07348856923589359,
          -0.0041378263343620865,
          0.00833537881628525,
          -0.01334771651647253,
          0.08765091031081218,
          -0.015475152914500676,
          0.05208652386928715,
          0.03745387923126002,
          -0.04118404608713859,
          -0.025625415005546652,
          -0.07489866255701075,
          -0.07221429392167171,
          -0.08827359240512503,
          0.010982753267988591,
          0.020749584960926017,
          -0.01285937016387281,
          -0.03845244552370723,
          -0.04020200495759311,
          -0.04278779591735989,
          0.022369543449549653,
          -0.06326568948024348,
          0.05805556152626111,
          0.027892887080749558,
          0.000673418849016885,
          -0.08385306190301574,
          -0.011047005982758979,
          0.020318163476247337,
          0.07277090313412862,
          -0.03454970882447293,
          0.09103257882588672,
          -0.009912023920546298,
          -0.0034654750972344024,
          -0.06436237154631214,
          0.0005775005482977027,
          0.06466802031733919,
          -0.009012164855706495,
          -0.04697028270112308,
          0.016756687512459255,
          -0.0017069115859953273,
          0.06015160877559581,
          -0.0513146880706592,
          0.021519992759296447,
          -0.02787674189509497,
          -0.06301365277124003,
          0.005843541257951741,
          0.055903138927811215,
          -0.04615135072340737,
          0.09186068982481345,
          0.038584770538048166,
          -0.06901839447022357,
          0.025836857208527644,
          0.052566463671351316,
          -0.01819709999116686,
          -0.0664882627030955,
          -0.08112059561139373,
          -0.005020082289649126,
          -0.049566738326518756,
          0.055451748954553036,
          -0.0845633808758597,
          -0.011858074116848432,
          -0.08312211358061997,
          -0.010834675857858817,
          -0.004142309712738675,
          -0.02628915762206485,
          0.06419834848230849,
          0.07334432726316248,
          0.049096921696228,
          0.06835585371674095,
          -0.001805153236683353,
          -0.023572361161153924,
          0.0055980827404613215,
          -0.05671891861452113,
          -0.0611153601552445,
          0.062231862750300765,
          -0.01614698226163786,
          -0.017239643689569744,
          0.061608893477149804,
          -0.0368259207491917,
          -0.028851135914047487,
          -0.08872712527209774,
          -0.03395885737075186,
          -0.08755719872469644,
          -0.0180186700974018,
          0.0900016162315012,
          -0.01871360252345921,
          -0.0684279007675257,
          0.08474483321935293,
          0.04087771783966005,
          0.03232869231808931,
          -0.016188190289076282,
          -0.04393576911370082,
          0.07972530586138743,
          0.024371031932963142,
          -0.08133965321162835,
          -0.05884728114811439,
          -0.08171318688988898,
          0.03399396833187741,
          0.054191796196040504,
          0.0118093926933458,
          -0.048092554530501055,
          0.04402787913362294,
          -0.0040704167092147055,
          -0.007055543119352544,
          -0.0030787845457297854,
          -0.026281664128400238,
          -0.06035425770426591,
          0.008468002437274112,
          0.06510450506640952,
          -0.06608279864090094,
          -0.02792669850815734,
          0.017574835822036602,
          -0.08638625600929338,
          -0.026854900289377193,
          -0.07954411968742894,
          -0.048354674092155145,
          0.08111618519598057,
          0.07965808287984981,
          -0.03351938492004761,
          -0.014944672245994012,
          -0.006369627048502544,
          -0.04825470701286468,
          -0.05736730098504281,
          -0.029087195799232787,
          -0.034471044590692515,
          0.03676319622957034,
          -0.04786133386971302,
          0.016108654012430366,
          -0.029159804405127564,
          0.01917841405429348,
          -0.009895024696704743,
          0.06620413880257205,
          -0.09019058582196274,
          0.009652534965003609,
          0.030406280885820553,
          -0.07554098853022143,
          0.07502012004407754,
          0.08228835992721,
          -0.025408099454162475,
          -0.07511515407966614,
          0.011700716977395975,
          -0.032435987677413604,
          0.022306693871291472,
          0.0495774716120707,
          0.028210937318490035,
          0.06397450948297162,
          -0.02999835953483313,
          -0.031098740951100098,
          -0.011782981644499101,
          -0.08877264588711811,
          0.03647677909115385,
          0.0645627715201534,
          0.06254582587497064,
          -0.07026079654134117,
          0.02745264815887234,
          0.08385039615126967,
          -0.07681239910208466,
          0.018641623871059554,
          -0.020571421472562513,
          0.04419893832029561,
          0.05493425885698178,
          -0.03663747685892306,
          -0.042151476031981425,
          0.048511160792850914,
          0.044316340061610324,
          -0.016809247019602302,
          0.08476128342566176,
          0.026811153152495694,
          0.08158129528875695,
          -0.08439942623065705,
          0.08987056857531876,
          0.019318798986101747,
          -0.0894400120213299,
          -0.006117226454387544,
          0.08647456733068008,
          0.06707807365684396,
          0.07770604231080232,
          0.06133610761396655,
          0.04366989635743718,
          -0.06770257984953659,
          0.07516591175143811,
          0.028974852588058694,
          -0.0661162476733136,
          -0.05535219266578277,
          0.036958819378731085,
          -0.08858833639260982,
          -0.049785155266471856,
          -0.08404801373233915,
          0.019020542399642956,
          -0.02111028734551727,
          -0.05882184578153467,
          0.061477724599888955,
          -0.0900082570322313,
          -0.04339062011715742,
          -0.08498671688937143,
          0.05436326163305337,
          -0.07388120195048381,
          0.012200105672120924,
          -0.059933006726930575,
          -0.05263986971975685,
          0.057256303596100226,
          0.02146736564332224,
          -0.06531245165359006,
          0.06263181745852384,
          -0.08260213275957212,
          0.03088619738346423,
          -0.021434287261354497,
          -0.01858066993223544,
          0.08713602153946948,
          0.07780404805843014,
          0.03277449043282566,
          -0.031772837174903194,
          0.08238277600535232,
          0.07629578398205179,
          -0.05868740215988517,
          0.019632673828971423,
          -0.06668809811500247,
          0.08636171742108097,
          -0.009803467071598597,
          -0.00506981721258491,
          -0.06633133345672598,
          0.040140460094842685,
          -0.020163654681618712,
          -0.08621543677001886,
          -0.08107961267026967,
          0.01151080832820121,
          -0.06550901542200875
        ],
        [
          0.0785547026161789,
          -0.02392266348095171,
          -0.031291041068022364,
          0.06104274652493554,
          0.04766245903632101,
          0.017159395587352667,
          0.09162386002052215,
          0.05516025409556376,
          0.0024220430279383244,
          -0.06718973102424712,
          0.06905993472113472,
          -0.07491247533043559,
          -0.07321726743729201,
          0.024370785250059774,
          -0.04480252372589717,
          0.017556210830833835,
          -0.043268300066066856,
          -0.07305807480830702,
          0.03455731879844364,
          0.07890273124248467,
          -0.07550006223173497,
          0.0159136743647647,
          0.032922321063729214,
          0.032250215897603206,
          -0.07416184204139423,
          0.029539627615293544,
          -0.028127174933810464,
          -0.012361360721091471,
          0.03833071337113689,
          -0.04005871082385587,
          -0.06417975733702758,
          0.051679561994774394,
          0.06780083668665435,
          0.0766111896448242,
          0.03693007307928506,
          -0.07752867162062704,
          -0.06397036597993937,
          -0.015098408065776071,
          -0.004867225062424955,
          0.04229472901232486,
          -0.026585057184413396,
          -0.015701265900206172,
          -0.014390720392176506,
          0.01986218988884761,
          -0.018432582038952754,
          0.0464782889698325,
          0.0745833273362207,
          -0.08155255198816147,
          0.029066830303816744,
          -0.03295044519838666,
          0.008619156306208043,
          0.02282055923392941,
          0.08073708890094501,
          0.06038139595825217,
          -0.012560416863476823,
          -0.005888841356425064,
          0.06607116749364594,
          -0.06394903709849059,
          0.06798616961946001,
          -0.05090766701335683,
          -0.05907033138776467,
          -0.0008106972444412126,
          0.014589542145791808,
          -0.059748446516598684,
          0.08524504072700864,
          -0.00342120748593106,
          0.05968903555043482,
          -0.07441205173904741,
          0.07852598038442672,
          -0.07732912751006411,
          0.0049894750018534785,
          0.005525233978980547,
          0.07942241382583973,
          0.061557365338630994,
          0.07823673013138861,
          -0.04084568571285558,
          -0.08484706381123393,
          0.06243523315056833,
          -0.03733155567455128,
          0.051479700646436644,
          -0.07557204196535611,
          0.08643521942480817,
          -0.01314233004596609,
          0.06543302968063071,
          -0.08834610625003118,
          0.07421756211844657,
          -0.03504529062603858,
          -0.05031732112363965,
          -0.013986685509739614,
          0.06869834836072443,
          0.08131255181833401,
          -0.05830098613088483,
          -0.06968563362464437,
          -0.009520159544818803,
          0.03896460256431496,
          -0.05246075006065521,
          -0.04121610303428664,
          -0.043029515020543134,
          -0.0916817834125148,
          0.030468201815294874,
          -0.031614176117709857,
          -0.09122174955748807,
          0.004132562574195163,
          -0.06635394473339866,
          -0.028631443307597815,
          -0.012787726037572875,
          -0.042993661521912745,
          0.066770186197684,
          0.06284251414548422,
          -0.05352854734116609,
          -0.039660375680683396,
          -0.08004244850858899,
          0.08473084407260424,
          -0.000010292621752852807,
          0.062154605712616336,
          -0.0375696539421652,
          0.008430823811583568,
          -0.012268983499516778,
          -0.001443513302014753,
          0.029669811770813254,
          -0.07345682015899514,
          0.0764303817990902,
          -0.08699581495813687,
          -0.038666271469704756,
          0.0007151442251599947,
          0.059733152941205424,
          0.0775934746350238,
          0.07906982352984082,
          -0.07411672555096623,
          0.001419852447537576,
          0.050652939464046434,
          -0.07660505683876542,
          0.08697504611664826,
          -0.07091106107792292,
          0.015817834093325628,
          0.008439002558135927,
          0.08670795045241138,
          0.08417056880136588,
          0.03434619111424205,
          -0.06172939746456473,
          0.029203321985217235,
          -0.08704958116630185,
          -0.05837926125475091,
          -0.07758552998728482,
          -0.05562989631496037,
          -0.03316442776527748,
          -0.026282106670598188,
          -0.0014741495939749846,
          0.02025128271713599,
          -0.0561195979282906,
          0.03337764722493475,
          -0.03570874591924576,
          0.033925948250403924,
          0.0049396712807737025,
          0.030953751584973193,
          -0.055922936457347215,
          0.03889301225516943,
          -0.05406763865849392,
          -0.0913611086829005,
          -0.08097433963661939,
          -0.03728332080062621,
          0.02821377367487157,
          -0.07803097790556547,
          -0.0873511120670216,
          0.04404589525121562,
          0.061550410301577596,
          -0.040678286654730535,
          -0.012855332908065576,
          0.023643084960786126,
          -0.026404279867391803,
          0.07873749758476216,
          -0.06965003433106869,
          -0.08355921679277499,
          0.026893645033627525,
          -0.01782077657930293,
          0.04474370029838298,
          0.07790646569158328,
          -0.021048244104761117,
          0.06900692634402249,
          0.019313097804671723,
          0.052690484203912834,
          0.04499857186277368,
          -0.06348916156015759,
          0.05582916492084036,
          0.054808853515623056,
          0.06752208286983152,
          0.05193154734171245,
          -0.027947640489718192,
          0.022908513276627324,
          0.04088324019355565,
          0.07714355648359125,
          0.0653324244737225,
          0.07913613587032495,
          -0.0019534639859766743,
          0.00066050435618918,
          0.037752811978209,
          -0.03694337563183271,
          0.06761787048506882,
          0.031821528663106315,
          -0.05088808118910591,
          0.03678115543161167,
          0.08049213158844779,
          0.05647844901778849,
          -0.03116651208495131,
          -0.0009978155395254863,
          0.006210280272603863,
          0.04708750246806041,
          -0.00535052994226914,
          0.004716749960936125,
          0.06483678365536975,
          -0.0003636705914790347,
          0.03512225453750164,
          -0.08945205524362573,
          -0.05192552848885869,
          0.019629855358308423,
          -0.06240937615680292,
          -0.0024954574850078403,
          -0.08849191093741592,
          0.042466460546169815,
          0.05077837694532487,
          0.00746184459278344,
          0.048570969329034555,
          -0.0606919513973211,
          -0.04018032207732725,
          -0.04759074953714171,
          -0.05365438276041799,
          0.017232344449619064,
          -0.08432393177487374,
          0.06708205514128811,
          -0.013088066521453275,
          -0.08719555695670886,
          -0.022119062940276844,
          0.06273527607969191,
          -0.08549224802272624,
          0.006218218364300333,
          0.01671972934927253,
          0.00447666268872957
        ],
        [
          -0.05831068146653969,
          0.07844138782900832,
          0.1023864165031399,
          -0.008485348435000045,
          0.018009374500936957,
          -0.029593531090342424,
          -0.0690878937539285,
          0.09335113473318671,
          0.0012612729693670635,
          -0.04126794952858171,
          0.05617623596024554,
          -0.05390095800519588,
          0.04822539914933405,
          0.03825145538790261,
          -0.006896078932262093,
          0.033712425686220786,
          0.020620183623992525,
          0.05820709432479155,
          -0.0031784041982980548,
          0.09045110703578918,
          0.06376564093975874,
          -0.041772596534943085,
          -0.06061798090176096,
          -0.0031838989618994513,
          0.07178962567868327,
          0.059641289032854934,
          0.02171793726640654,
          0.008075702899457348,
          0.006003734128051129,
          0.0759206372279475,
          -0.06569476030909387,
          0.06768903567787062,
          -0.069033970633949,
          0.08489780240072642,
          0.05506815667991344,
          0.08610326696506684,
          0.09074496270317284,
          0.06789099413042399,
          -0.06189584875549488,
          -0.019735002336679377,
          0.04789876411685363,
          -0.03829148295480049,
          0.05172435541053974,
          0.009056257777199915,
          -0.04145502415083318,
          -0.030784013255934307,
          -0.03872121355887281,
          -0.01663689055912943,
          0.00662505954801696,
          0.03839518949226514,
          0.07538998747770194,
          0.021513180885562498,
          0.09160284626538956,
          0.04617773463059542,
          -0.014662897565860773,
          -0.02181641730498517,
          -0.03034386661345118,
          -0.010285638296561359,
          -0.00729839386232718,
          -0.037740639845608395,
          0.04859360417005142,
          -0.07778881327538069,
          0.05935115168167279,
          -0.07631659315669659,
          0.08931557248146389,
          -0.08114182787808219,
          -0.08425223519355517,
          0.009429516242963343,
          -0.05542428387086036,
          -0.06185190017092186,
          -0.08000590784960095,
          -0.04861085160358263,
          0.07205919778624874,
          0.08408330040294361,
          -0.02022690197884271,
          -0.059752465317792866,
          0.053949918768394764,
          -0.05897166649426652,
          -0.0005581334058816556,
          -0.08086942854236205,
          -0.00876519573629986,
          0.0015124834483251335,
          0.037846808517354516,
          -0.08413876587640652,
          0.009713707837634833,
          0.023766665952364867,
          -0.060590462132291745,
          0.078298551452583,
          -0.03536176697066866,
          0.07803118867261104,
          -0.022882870354980402,
          -0.012329607272763353,
          0.00952974058451155,
          0.0031433384731045662,
          -0.041818773078487095,
          -0.008039975585952546,
          0.08678410822009096,
          0.033384201274498246,
          -0.033418822566999476,
          -0.035745882785729204,
          -0.020166248984057437,
          -0.033993109620955135,
          0.07775249190659939,
          0.016511738860573246,
          0.04388047951600663,
          -0.009768126114537725,
          -0.018543568809402968,
          0.05860780281294956,
          -0.00301997866751938,
          0.08204417068887734,
          -0.016609590762976995,
          0.06636683620878062,
          -0.06352242513854567,
          0.0820831065723089,
          -0.0029136113708924504,
          -0.06360837601223156,
          -0.029117977650104238,
          0.0461658308760712,
          0.0788439326187754,
          -0.024964394935310923,
          0.06373456314492539,
          0.040610615541831235,
          0.02760815834008224,
          -0.04953242259270614,
          0.07288701885520224,
          0.021013035865178435,
          -0.05227469698070079,
          -0.07836143187367722,
          -0.08962812153341491,
          0.013647328840952924,
          -0.0652986077886711,
          0.01039914070009815,
          0.010935023094253551,
          -0.0024359185637120133,
          0.005523477780041494,
          0.03604845126298728,
          -0.009719640189172311,
          0.02583511382713597,
          0.01047664167543723,
          -0.02650039403731119,
          0.015728328170527234,
          0.016161661194271065,
          0.021516259710807967,
          -0.013807533031068523,
          -0.03405974508006711,
          -0.027377718623470697,
          0.08111444110428975,
          -0.0023109349005882105,
          -0.06540186255191534,
          -0.06698896023272406,
          0.013281412451659527,
          0.061414976925434454,
          -0.035860876885611966,
          0.07160788210948016,
          0.03603727200108008,
          0.05900913931304548,
          -0.03574381084939853,
          -0.05635187006331055,
          -0.03502796508115946,
          0.08418963964618927,
          0.06292918372901735,
          -0.046697248304862306,
          0.08379046604267414,
          0.005784931265060114,
          -0.0034876166084274246,
          0.07461588878012049,
          -0.01827123974163856,
          0.047674019407469674,
          0.0016919505481580584,
          0.07102193662922815,
          -0.033132278087276146,
          -0.0407927869059783,
          0.06043751552507466,
          -0.08798109788030223,
          0.09691497869576329,
          -0.008313085226878413,
          0.06995043543778066,
          0.029918752425328213,
          -0.010926662340318692,
          0.06821379834703307,
          -0.07903618079116748,
          0.007424989589447645,
          0.03042892799016828,
          -0.043680540399126215,
          -0.06017971201972521,
          0.04288972144772671,
          -0.062083576172499245,
          -0.0359540581175576,
          -0.014258356040645629,
          0.025595240793006,
          -0.06083089679723587,
          -0.029143553597465933,
          -0.07649274992394582,
          0.07719175979719871,
          -0.06381763542334705,
          0.09120843871851006,
          0.06574204589600417,
          -0.023481112972997393,
          -0.00021360596032073955,
          0.05331682498114631,
          0.054129601119169576,
          -0.03850600176122419,
          -0.025814123959218012,
          0.06836473890029193,
          -0.05885700468102197,
          -0.05451180559668599,
          -0.08597837630127811,
          -0.02485244473749617,
          0.03576380574585406,
          0.07946040057450515,
          -0.08588222276637848,
          -0.08039099585927137,
          0.006985415063789029,
          -0.047649611704670136,
          0.006344021466641923,
          0.038758813314648366,
          -0.07353664743619212,
          -0.04173744429253455,
          0.05463692039538939,
          0.048612838825962665,
          0.013418073750009387,
          0.07370060559589825,
          0.037520642938993896,
          0.00653255003632358,
          -0.04139951426110862,
          0.034559589983716166,
          -0.08094828293003425,
          0.05830976890346333,
          0.08304451385021723,
          -0.04796213392025949,
          0.07500972169493404,
          0.1170202476064001,
          0.05551505622466658,
          -0.06208036773176208,
          0.07945882034023712,
          -0.06629653379964293,
          0.0655246442904599
        ],
        [
          -0.025549504942715198,
          0.1366404841558,
          0.08444390193759366,
          -0.03173200940893954,
          -0.0215764734866303,
          -0.004930379110127773,
          -0.07710962501536427,
          -0.028541196314015034,
          -0.07615508226248241,
          -0.06058458734273421,
          -0.025760994422118804,
          0.03677516907965094,
          -0.08932787804318681,
          0.03024011868124155,
          0.041396691042160406,
          0.01443886613653957,
          -0.08216398331807563,
          0.08273794303820864,
          -0.023321303635606545,
          -0.08758702842074181,
          -0.057235030909658514,
          -0.08431350020326278,
          -0.050930413576388146,
          -0.042150691206198306,
          -0.0632480132134259,
          -0.007639745131658277,
          0.03956048821521101,
          0.08980513656585697,
          -0.08952601998548959,
          -0.060487648060807274,
          -0.06662416005230404,
          -0.06487307457144238,
          -0.08637518148283106,
          -0.08026013641414231,
          -0.08925619224168801,
          0.08990525270733003,
          -0.01797899817234104,
          0.022402035814947645,
          -0.029939155807982402,
          -0.0717481680975066,
          -0.026867240365772874,
          -0.03596291706009261,
          -0.07642810934138652,
          -0.03795809200907922,
          0.005448156188505862,
          -0.008368795573076728,
          0.056546959672713275,
          0.02583751243131974,
          -0.06706374007306944,
          -0.02420802186159647,
          0.06898479450992398,
          -0.08015607251719079,
          -0.007072533734052061,
          -0.039875561543774474,
          0.07312603768153926,
          -0.028687166269799304,
          -0.03850010049695681,
          0.01485113598132846,
          -0.03887801260650124,
          0.08989702720033363,
          -0.013284313354328912,
          0.056251121953254477,
          -0.002461078925358987,
          -0.00728665601244563,
          -0.03668277024920058,
          -0.04423987485699659,
          0.00021451819962237497,
          -0.02039796637044159,
          -0.021935906567740335,
          -0.04208279102024101,
          -0.08103077005501737,
          -0.05766388429792505,
          0.0745943743603736,
          -0.018378659276823014,
          0.046466943755781163,
          -0.07293609604512477,
          -0.03400852276934896,
          0.0843360121484966,
          -0.051778992279222155,
          0.0869190810887937,
          0.07062132925344752,
          0.034676525704609766,
          -0.08854505760547442,
          0.004129830646439351,
          -0.026721785742680273,
          -0.01769513951372205,
          0.07345252029557559,
          0.003938138835399516,
          0.07628831896467221,
          -0.05688050093742899,
          -0.06360372495556975,
          -0.053461811221523374,
          0.04769465941443928,
          -0.016950573307739317,
          0.04090886382143296,
          -0.08724863941500668,
          -0.055899827889335146,
          0.04509208652244047,
          0.07192408261557696,
          -0.019549636886648156,
          -0.08998034424910141,
          0.009820036478908143,
          -0.07270861264661417,
          -0.07935633544246203,
          -0.0712511550258389,
          0.023549566001284883,
          -0.04524826241902572,
          0.07764615869560497,
          0.049133814256467484,
          -0.06672070771577657,
          -0.0016048993282866846,
          0.09075018865763346,
          0.03662783234557786,
          -0.01778995072082795,
          0.08817178817319817,
          0.07855462428688109,
          -0.000185328991414805,
          0.02618109685779216,
          -0.039293532204032026,
          0.002554342564657679,
          0.02341398717768361,
          -0.08183482766593426,
          -0.021574787216967112,
          -0.03910249372023333,
          -0.05782525539037631,
          0.022908428102765634,
          -0.05399682110425944,
          0.09065640139420719,
          0.07910107341736786,
          -0.042283206535848786,
          0.008191477266539371,
          -0.04663303480060936,
          -0.03277331046654403,
          -0.057887917166609376,
          0.026783430783123282,
          0.029659117432837126,
          0.014195568258051931,
          -0.06658767254125025,
          0.010679751168577235,
          -0.026312634405186178,
          -0.088043574947622,
          -0.07620768522107799,
          0.03977626125272904,
          0.041859190561040135,
          0.04488469984570062,
          -0.05361663358393,
          -0.052249073523292035,
          0.02982661121126049,
          -0.0013016026445812454,
          0.0912283187328603,
          -0.016127148347278682,
          0.0637159981725314,
          -0.019069268888129355,
          0.012618097274580206,
          -0.08147203938268449,
          0.04884871720319876,
          -0.07499904703639312,
          0.07930717518795616,
          -0.0028548744672155335,
          -0.022259439782018473,
          -0.05306345558390529,
          0.003291507988241036,
          -0.0523851488566079,
          -0.07292007428422059,
          -0.06857850168026251,
          -0.03385182641501319,
          0.030560152922316973,
          0.015150584766212725,
          -0.08514858366712098,
          0.06765396410551294,
          -0.0143652774339458,
          0.03236995722954503,
          0.021856853424449426,
          -0.06768493842124233,
          0.00018122633389716048,
          0.02611293057057984,
          -0.027795853208798973,
          -0.00688237043089501,
          -0.011381629798885236,
          -0.05359662684553899,
          -0.01613532513330422,
          0.004532902665589125,
          0.026255463590355937,
          -0.033441268505081535,
          0.08220209934463764,
          -0.019149993238082065,
          0.025199464279645947,
          0.03021782038738825,
          0.059552146913259676,
          0.04767821571225394,
          0.031421495490328126,
          0.07795961402006055,
          0.08112176152545462,
          0.013857948535891226,
          0.091509875918746,
          0.010260139529356952,
          0.06970522887237604,
          0.08746413548532347,
          -0.0005398569794200662,
          0.053670228447276466,
          -0.05278591019521479,
          -0.024950594943481723,
          0.04617875279176854,
          0.07126485394777089,
          -0.08394658402470519,
          -0.04362616418537117,
          -0.07652938479503832,
          0.03530420913169556,
          0.03231996677848808,
          0.024398318504940807,
          0.012578313035058412,
          -0.04884462825943249,
          -0.08674294554170227,
          -0.07911600273456917,
          -0.05049227638624209,
          0.03199376344106052,
          -0.052424746989299505,
          0.03760376184772583,
          0.019701706106484848,
          0.07888303984563334,
          -0.07205734212715266,
          -0.039495331433999206,
          -0.02201782821647601,
          0.06461857287222127,
          -0.047918360194881805,
          0.03400980843818642,
          -0.039529007804859295,
          -0.03355985649362467,
          0.024751960532818706,
          -0.06451348631247669,
          0.004880625132061969,
          -0.0681608102127121,
          0.09259095947774179,
          -0.08418223216666396,
          0.03638832201811023,
          -0.008846810675740661,
          -0.012036598350644872
        ],
        [
          0.07841096342988241,
          -0.0168860065468146,
          -0.03199969694251837,
          0.038228046389622045,
          0.08963437863007942,
          -0.0097653848105701,
          -0.054138937581947946,
          0.013767239065251995,
          0.032573321574901636,
          0.061187551409740464,
          0.07360851635137952,
          0.011583354683998147,
          0.030315667593709295,
          0.030643295618936802,
          0.08765589622396099,
          0.03463292050751996,
          0.027839929168689402,
          -0.05329255437958959,
          0.05062251887175091,
          -0.02622996267621074,
          0.014236511286744215,
          0.038270402270954226,
          0.039009422125296254,
          -0.08630502432336903,
          -0.050958413228674546,
          -0.05298267326395526,
          0.0008062075778364229,
          0.06443269598841231,
          0.08471677005264129,
          -0.03723894066760917,
          -0.020101086984883713,
          0.08554139552831486,
          0.09058454783472039,
          0.03917095724735407,
          0.025106270536955314,
          -0.0407418978556961,
          -0.0425896999950398,
          0.017314382264124763,
          -0.007716944021767723,
          -0.008587592428905246,
          -0.043319237462355074,
          -0.006633494022549277,
          -0.04635400701611958,
          0.06816166522208014,
          -0.08945710167299543,
          0.04029447210607348,
          -0.049446956141490986,
          0.07880233332440299,
          -0.026292023290041516,
          -0.015816460286347606,
          0.013594473229339253,
          0.06943583646956254,
          0.06052519016650682,
          -0.028859693575863057,
          -0.0058277395805694165,
          0.012566130788374775,
          -0.002573103323968936,
          0.08680900745345865,
          -0.09081300072370486,
          0.05741414261137445,
          -0.07158627839548574,
          -0.045412238819245596,
          0.013793265733584794,
          0.08875098322055558,
          -0.0766109915588233,
          -0.0386663308683455,
          -0.02926954293533397,
          -0.0445634866271735,
          -0.048913348297088315,
          0.0762229269146118,
          0.015635102274709656,
          -0.017997630467114896,
          -0.012113723927508622,
          0.01912724987294673,
          0.0789643953403677,
          -0.06724314269620649,
          -0.05446877098092826,
          0.01084343207637531,
          -0.07921577847419607,
          -0.06763532593921034,
          0.07613927786491566,
          0.05306040983697407,
          0.03803110195220224,
          0.041915014252241534,
          -0.07690130236592191,
          0.02476140750618184,
          -0.08946217199615257,
          -0.07718495378539791,
          -0.009088248958175513,
          0.05501969022656972,
          0.0873954581660464,
          0.04589636478988615,
          -0.08077670970785912,
          -0.06146706702951181,
          -0.08409210345129337,
          -0.09056249064684829,
          -0.0781443596004285,
          -0.014857006365333643,
          0.00819466205149636,
          -0.09117670447300318,
          -0.02897380248100769,
          -0.05732396355712317,
          -0.01849681469066461,
          -0.04210599536861066,
          -0.023430934248718942,
          -0.08160764691403224,
          -0.07678475217378426,
          0.036526516405545606,
          0.00441077594477467,
          0.042903330091273714,
          0.07856022899400163,
          -0.002048507046417205,
          0.0034918609035557734,
          -0.006417928568552239,
          -0.022433794784022947,
          0.0352141256614455,
          0.03599579480067011,
          -0.03911599959248836,
          -0.04449939805683735,
          0.020309608134204366,
          -0.03249772967049191,
          0.008994332392271532,
          -0.012004868806289391,
          0.07488523468541991,
          -0.04376866708189471,
          -0.023509127705830114,
          0.08515132481245194,
          -0.04104034596784196,
          -0.024149344287313107,
          0.05385216450342295,
          0.08226140747693463,
          -0.02421661132936445,
          -0.010096727318621707,
          0.05711683858907579,
          0.08582887888667733,
          -0.0673975187243818,
          -0.0742511246255349,
          -0.014401430115496681,
          0.0324336756879439,
          0.05452946950820538,
          0.05951413882936587,
          -0.08045700175343924,
          -0.08789913861111913,
          0.007078124452055887,
          -0.012151484081779549,
          0.0009207107807015041,
          0.05371946673506925,
          -0.06410844048769367,
          0.04571914393425182,
          0.06770432323215139,
          0.030834612526550162,
          0.04992993739029967,
          0.02465174731105318,
          0.00035089979347478696,
          -0.0917333903342204,
          -0.08057875460088547,
          -0.03123984819306623,
          0.0854517634888711,
          -0.07762314149335825,
          -0.02938097508732114,
          -0.02505584078619178,
          -0.01913615143745651,
          -0.029676585422290732,
          0.05857544422286214,
          0.058122101566593184,
          -0.022256793849588643,
          0.08883152124168121,
          -0.032049056453512595,
          0.08813184146838236,
          -0.07792974536198116,
          -0.024317617510627703,
          -0.042840024828599166,
          0.013445633956129525,
          -0.06639060918255191,
          -0.07721170580051535,
          -0.021807364606277444,
          -0.06214500591470823,
          -0.017076918981759604,
          -0.068767045768156,
          -0.08079020050422142,
          -0.0013475324737850544,
          -0.04919511426556256,
          0.06294239799786726,
          0.02316111994064369,
          -0.08070977305815032,
          0.024480226566511415,
          -0.060325547331428586,
          0.0801035715451515,
          -0.015405830435578272,
          0.07386337810118881,
          0.07425751656268434,
          -0.08403581000062603,
          -0.07270503783737998,
          -0.08961220443625706,
          0.00893461998541937,
          -0.07542179832648715,
          -0.014835388867746309,
          -0.06325185281643168,
          -0.018172217280937878,
          -0.049541263239907686,
          -0.02601660020042527,
          -0.04279874448953869,
          -0.08406953868734017,
          -0.0019001771896447342,
          0.0013156874234141619,
          0.03306133432325883,
          -0.05143975052837252,
          -0.023806698651315367,
          -0.07813468174990647,
          -0.05357295016304979,
          -0.04510410013544821,
          -0.00032425514846989,
          0.05418230185946588,
          -0.0792639846699066,
          0.07660551039719371,
          0.05716300118753165,
          -0.01008106561104857,
          -0.03329318335472757,
          0.06966389582221931,
          0.06678079083439321,
          0.011747714540623459,
          -0.048077741327441366,
          -0.006141324411038846,
          0.021974844840106856,
          -0.006602931950177384,
          -0.06399101616755508,
          -0.0585108860760238,
          -0.0334363593277946,
          -0.011304485366360913,
          -0.07164293584490736,
          -0.0014311951685470484,
          -0.07576876387363744,
          0.04846099817262143,
          -0.0427137833189905,
          -0.05289115824823034,
          0.03603958739746429,
          0.06224965847229719
        ],
        [
          -0.03214692224509093,
          -0.04292438866934335,
          0.016257972240597798,
          -0.04964212694448695,
          0.04491192964634388,
          -0.05735227739010471,
          -0.012096510855284666,
          -0.014787932150895997,
          0.029579012038529348,
          -0.02188307022788085,
          0.03893836013226877,
          -0.0611964550476211,
          -0.08636064115018605,
          0.08622676870726269,
          0.03575475774707322,
          -0.04040252656005623,
          0.020080867238578094,
          -0.06775654128293519,
          -0.027517878088861174,
          -0.01240626843558779,
          0.016993783413870252,
          -0.05623427624954995,
          0.033899109601976736,
          -0.04768098026988077,
          -0.046612447910239704,
          0.033926053467535494,
          -0.09135103444731087,
          -0.08271598672490034,
          -0.09017916220739641,
          0.06483064939988771,
          0.02076006280037091,
          0.06090719322779991,
          -0.0622448172900168,
          -0.03818084745972022,
          -0.08015904218964363,
          0.04228108253233123,
          -0.04977643932850733,
          0.05442263248973597,
          -0.052085322797520074,
          -0.009982678725131462,
          -0.04937926498030657,
          -0.09078997887860268,
          0.008637316954676925,
          -0.09164122455929288,
          0.07536548814955227,
          0.07478304112446214,
          -0.06415323803720097,
          -0.05171988179117651,
          -0.0015123489801786884,
          -0.030740950930805873,
          0.00916132069363214,
          0.015166249536861817,
          -0.047981188905200194,
          -0.08101824019598766,
          -0.0380040388626415,
          0.07478996840822288,
          -0.05886757760756633,
          -0.06643477851613866,
          0.09113326955419156,
          0.031037218878556726,
          0.012875508452393186,
          0.04803610397412386,
          -0.07544235732866206,
          -0.01651251806525624,
          0.02402563867740432,
          -0.03893023142235374,
          -0.05504352423562745,
          0.017324144402688143,
          -0.09183809669143261,
          -0.003044528827987943,
          0.021078599638244763,
          -0.0004935901016362651,
          0.05821269094701967,
          0.050990625000274334,
          -0.05258753410862591,
          -0.08695502343289735,
          0.02540773461510251,
          0.03743162619640176,
          -0.0009883148890378927,
          -0.07130650086019805,
          -0.060608512817929595,
          0.07998606028764828,
          -0.021700788488602227,
          -0.06226886979100153,
          -0.09131816338163566,
          -0.03478089057122553,
          -0.005994712781700626,
          -0.07249025044584483,
          -0.06846407378752657,
          0.0813103592687561,
          0.02789141977159889,
          -0.07800848508054156,
          0.04399200122089105,
          0.08601796926044371,
          -0.03255877988872234,
          0.04873014243672207,
          0.083389426256469,
          -0.06390766461159358,
          0.02494466676181067,
          -0.08974996051818657,
          0.04072467203408952,
          -0.07781038675642941,
          0.0030828241102903824,
          0.01292676789521511,
          0.035575206065837355,
          -0.007294666365450817,
          -0.042900241663325143,
          -0.07060952003156146,
          -0.009235420294486665,
          -0.033789431429763005,
          0.0393928218313906,
          0.03717266263771252,
          0.061492785475224084,
          -0.019272766920222714,
          -0.06560108118974947,
          -0.08800715597678904,
          -0.015566055643945483,
          -0.07366046856392196,
          0.021874441954810742,
          0.03936971821310008,
          0.037177063550400624,
          -0.05887261874423984,
          -0.06011391080508426,
          0.03489454178237168,
          -0.005512258141885127,
          -0.08107229464749811,
          -0.07603348560420135,
          0.06994905334141167,
          -0.08069074953478404,
          -0.01772369704917934,
          -0.024120588206867508,
          0.009722238348639757,
          0.05397993311872588,
          -0.06913713731033752,
          -0.057553173658838414,
          -0.05384033343289953,
          0.06468006527938071,
          0.026949581430224617,
          -0.04029340074512506,
          0.03866708370013127,
          -0.050465687732102256,
          0.008897012003681011,
          0.05348321587623103,
          0.07281940506163719,
          -0.01825905027125997,
          0.009346746170205741,
          -0.09074669259785328,
          0.027622185806627064,
          0.015861525070184956,
          0.06015464505488748,
          0.08207585890607708,
          -0.003135779618293161,
          -0.06595194306763787,
          0.05292049029859245,
          0.03290799935794228,
          -0.07600535882594775,
          -0.061647865775571506,
          0.08651602031743147,
          -0.056483172020656044,
          -0.07336390168963089,
          0.06776769847703724,
          -0.09127123460702469,
          0.05990685515541718,
          -0.06804560335284542,
          -0.010116387230501886,
          -0.06991141552997532,
          -0.03940864825101654,
          -0.02326024705000081,
          -0.06706272020843404,
          -0.08451081665433158,
          0.04669222465218513,
          0.05014295382954868,
          -0.07462349141912453,
          0.07048385634222469,
          0.032212751064906044,
          0.05858549963915783,
          -0.03930536259634662,
          -0.03133242292994858,
          -0.04418980148505641,
          0.02866378396296079,
          0.04916828688002163,
          -0.08267104160735583,
          0.003672932755436789,
          -0.05435190095762709,
          0.07486829289534559,
          0.08254407501426002,
          -0.02152890727585369,
          0.08050022575186103,
          0.030027293659648378,
          0.06363718313532393,
          0.09317879132149802,
          0.02283089892423291,
          0.03127136844111752,
          -0.027478721548055772,
          -0.0322538716479754,
          -0.06868912178285386,
          -0.08460534672675886,
          -0.037720509210735116,
          0.05973753565822235,
          -0.011717561772458317,
          -0.03676756449442991,
          -0.07880262109188799,
          0.05709867499965631,
          -0.04134443350730607,
          0.03866068214682764,
          -0.005955713136688341,
          0.025566604459112123,
          -0.08196026041548438,
          0.060366102950428435,
          -0.058870364319309164,
          0.0723085906814934,
          0.03298104672519482,
          0.02848014338294095,
          -0.06274947006407582,
          -0.053398560864618534,
          0.0887608107572096,
          -0.03565193210822143,
          0.03728285788816036,
          0.08792089381135842,
          -0.013313573687723205,
          0.0257535106956839,
          0.0580016967546182,
          0.03704516912946066,
          -0.010772497496119887,
          -0.04962475779761343,
          0.038361290629366,
          0.08676026823334175,
          -0.025108050319421694,
          0.038438934420143206,
          0.024657441918057344,
          0.01932821924978619,
          -0.0647724751954827,
          0.09316895745301744,
          -0.05462142414670387,
          0.05159657083511321,
          -0.027870195842900642,
          0.04458042331969088
        ],
        [
          0.038879615848030284,
          -0.06321789674670011,
          0.00612979783697309,
          0.06777889206435293,
          0.041771446674079414,
          -0.03704249745995154,
          -0.08431680703986044,
          -0.08227653696820433,
          0.011810380363020517,
          0.014747737534957901,
          0.08838150577981858,
          -0.05984215159718359,
          -0.0729136779396134,
          0.02702001318201374,
          -0.06714068375775414,
          -0.02624588523199368,
          -0.06481828246553702,
          0.0021761491425365148,
          0.06657838573964979,
          -0.07243568837162043,
          -0.05227545554943821,
          0.09033070874141795,
          -0.018831978060933948,
          -0.036096570815637774,
          0.022281035709055572,
          0.08524628585853343,
          0.0674137248717209,
          -0.06758462291562031,
          -0.0732980322853333,
          -0.07338640802835171,
          0.07505964498048992,
          0.06135512076575074,
          0.0034025003011712352,
          -0.034941101579741236,
          0.05550530698961438,
          -0.019778984986156514,
          0.04889413761853887,
          -0.06804589012044883,
          0.06645939980737274,
          0.04436196215874156,
          -0.012350214749786297,
          0.03951691840809072,
          0.08209534921228957,
          -0.004250169166716298,
          0.0070157014997408295,
          -0.005207842778903881,
          0.0060701497526610085,
          0.03668745987136828,
          -0.04267766405974446,
          0.022243722154557798,
          0.003648568814164958,
          0.05995856214034712,
          0.030575448887697764,
          -0.013863489372306992,
          -0.06437102558665735,
          0.052557583249744654,
          0.08709887921080346,
          0.0010671209972426489,
          -0.0372971476305692,
          -0.039908224197590755,
          -0.004664507367771547,
          0.05706237085069493,
          -0.01038179216824751,
          -0.025808986711711373,
          -0.07676583554223858,
          0.03078365875389907,
          -0.023398108294837464,
          0.03695871116771256,
          -0.04824729262107906,
          0.08440537215828756,
          0.009899547865166131,
          0.005552161151158232,
          0.043156132626358666,
          -0.057883740116712656,
          0.05443056978311789,
          -0.06659861726934894,
          0.06780002372822164,
          -0.03428990950099777,
          0.04123984465015922,
          0.05125147253331074,
          0.015281795900377875,
          -0.03656598958327869,
          -0.07444302566493624,
          -0.025552204315711088,
          -0.08664752065829495,
          -0.060791845664050194,
          -0.026915792883434805,
          -0.021764900590864132,
          -0.004883720163131129,
          0.04474214520751483,
          0.042906138407087124,
          0.007624960643683661,
          -0.056611705716899066,
          -0.07524430316649511,
          0.0010382527049466368,
          -0.04487599138791578,
          -0.07283701459001064,
          -0.017431068236427313,
          -0.0378856742475852,
          0.07186990971000211,
          0.013083065668212216,
          -0.011071207791584596,
          -0.012534186680516,
          0.060085064785589316,
          0.06300720023663506,
          -0.06121395528387176,
          -0.038699383969184944,
          -0.07575720523759269,
          -0.09103093344200974,
          -0.02515169866012438,
          -0.07750489569645273,
          -0.04178724671331458,
          0.0011723687498921649,
          0.007235368840574682,
          0.05423020957911423,
          0.02453522852968653,
          -0.03893869994695884,
          -0.04387257579505832,
          0.041542166109381114,
          -0.088977392535874,
          -0.08540391147587928,
          -0.020326362982140054,
          0.006936505776200081,
          -0.007000957208232241,
          -0.01722171696563229,
          0.035737173837610006,
          0.06372401469160516,
          -0.05329297640442294,
          0.01486936339177261,
          -0.00032790801182587293,
          0.025084604811720167,
          -0.05080919586978855,
          0.025389144568428203,
          -0.04333312098660748,
          -0.018909226477898416,
          -0.07320663487330285,
          0.038008143539243186,
          0.08604476429145112,
          0.03014193305186255,
          -0.0686114808152226,
          -0.07661351455925827,
          0.04476274634472104,
          0.05596005351568311,
          -0.003923053324369057,
          -0.02085551550896739,
          -0.06083862650175476,
          -0.07331493106447251,
          -0.07671222972290846,
          0.0244665450491268,
          -0.030528052073449368,
          -0.08045939437540828,
          -0.009181813178433973,
          -0.031137396453419564,
          -0.01880734029675201,
          -0.04595359147697633,
          -0.0019118112606822046,
          -0.007370203246759821,
          -0.0551181341915712,
          0.029556999443348005,
          -0.03304634420782721,
          0.05923136884818796,
          0.03599501636898596,
          -0.009602607203069642,
          0.02181106077079076,
          -0.06054859857345398,
          0.05170388482264205,
          0.01083540681323994,
          0.058744610101680916,
          0.07234402285523443,
          0.0017094769951367446,
          -0.006960341270119287,
          -0.057790773453782286,
          -0.082813114880599,
          -0.0810844833007041,
          0.02670268189646103,
          0.03913371940492471,
          -0.07586948432176946,
          -0.023517633164638625,
          -0.0446757787355329,
          0.05187529792260393,
          -0.08045827613820171,
          -0.06495231613258837,
          0.058798305457847505,
          0.02249982166734957,
          0.028062559603244434,
          0.06616960465607392,
          -0.050827929231130775,
          0.060528635255975474,
          0.0816209155600156,
          -0.03613154109749149,
          0.006562877704336147,
          -0.04879506362287905,
          -0.036567631711257695,
          0.0157473777218668,
          0.09076115046296568,
          0.05745838897084136,
          -0.07133388774241259,
          0.017041634237819965,
          -0.019854823040539406,
          -0.0019664238269331905,
          0.0008653168664560818,
          -0.048987402113833935,
          -0.07668427293287487,
          0.04303708523671456,
          -0.09142840206315359,
          -0.06611972552154427,
          -0.009950478302591539,
          -0.029298147647386058,
          0.027222593492243315,
          0.06519958655805543,
          0.03529005801164577,
          0.05900048382550237,
          -0.017237122041585798,
          0.042362142388553556,
          -0.08935045489655008,
          -0.023183772762419366,
          0.07287566204725543,
          0.004119823813977776,
          -0.06295731563861871,
          -0.05388184845633199,
          -0.05565960026112581,
          0.04513480197710352,
          0.011431967686119511,
          -0.03818453122957259,
          0.03587876212984056,
          0.027353056997251247,
          -0.06311106345764941,
          -0.02132850588223534,
          -0.07182333749769552,
          0.06838801105726101,
          -0.052185730464663654,
          -0.026137153068529487,
          -0.07670965796533738,
          0.041906260627156855,
          0.0436336862850156,
          0.06910577846014586,
          -0.09176891014029763
        ],
        [
          -0.07407621814943717,
          0.04872619764638207,
          0.09204657358262025,
          -0.07895521133235925,
          0.04510174646037983,
          -0.026187712906258803,
          -0.0617689572290668,
          -0.08181938495048974,
          -0.01608067318917001,
          0.03693378490800598,
          -0.08220726012374634,
          0.02663085625547616,
          -0.008051352680974976,
          -0.02455929401175119,
          -0.023543771323569506,
          0.061466471380672814,
          0.06788987216242501,
          -0.00014370929879019777,
          0.0002376220848698313,
          0.02259592180699117,
          0.02139138323855244,
          0.059604957713950316,
          -0.01763382080773002,
          -0.07200542981812828,
          0.06382005007830574,
          0.024273686602292077,
          0.08433318222910606,
          -0.05303262224977238,
          -0.022974220628400925,
          0.04838746603976871,
          0.025487699231033067,
          0.0005264065954879491,
          -0.014737972485849626,
          -0.003270765228527003,
          0.0675196932806109,
          -0.06330001087461463,
          0.04437050439369917,
          0.08452469961934277,
          -0.02845638270261476,
          -0.08461045027449066,
          -0.026185626338779005,
          -0.0824178757829703,
          -0.05616058593643974,
          0.020883441002699017,
          0.02533975700479628,
          -0.0737604228617828,
          0.013772406837322825,
          -0.05974851648208773,
          -0.044964331387048445,
          -0.061713912244507806,
          0.08312385301805554,
          -0.07193545003800395,
          0.07278431259924142,
          0.010715320197045837,
          -0.022143393349452565,
          0.06965767796988069,
          0.06047851836795665,
          0.014060584026533323,
          0.02233006154686225,
          -0.06983014917697354,
          -0.07880980166122677,
          0.06355786179160244,
          0.06196709756172968,
          -0.05204865821134099,
          -0.015381394756917275,
          0.012400929795671835,
          -0.0068117128901643495,
          -0.07538361161193582,
          -0.05185450794692919,
          0.032579816802533114,
          -0.05955287746602974,
          -0.05457535472402045,
          0.07333870022453937,
          0.0504420244866658,
          -0.01547453158579014,
          -0.040713684760583756,
          0.05356655042981262,
          -0.012494765384907094,
          -0.08471104434093082,
          -0.042438692532615244,
          0.0023107490010359057,
          -0.07775568007883846,
          -0.08605375222875873,
          0.04779363949015654,
          0.004485399893231346,
          -0.0877583029571625,
          0.018082566362011988,
          0.005951641996028946,
          0.05506513843139557,
          -0.028729634651386268,
          -0.08878861616187311,
          -0.04605181333300497,
          -0.07883310426262158,
          -0.005795099144833943,
          -0.06238443635281338,
          -0.06373099254316943,
          0.061771417768968204,
          0.05096104989488541,
          -0.07935394049985874,
          -0.07010117829710709,
          0.007067058236398926,
          -0.028751420869824466,
          -0.03154419828108985,
          -0.037835894859874125,
          0.08433559678063604,
          -0.02136584884132023,
          -0.05669479138190957,
          0.07820373468838042,
          0.026478117413345353,
          -0.03837777659705114,
          0.07822882408981756,
          -0.052709119283952,
          0.006150120246533328,
          0.07621291256436631,
          -0.03258771763766345,
          0.03335280010035174,
          -0.04208914677303523,
          -0.041748983899223276,
          -0.0422925658686601,
          0.05571169184063746,
          0.037878472098877985,
          0.05680575977336899,
          0.07179803160048458,
          -0.05157043665776753,
          0.04510843912467687,
          0.07412083938332086,
          -0.0635481854818053,
          0.06318673371850395,
          -0.08920227305509082,
          -0.026718996455075077,
          -0.015785260864339394,
          0.09028042240565883,
          0.014558553743856204,
          -0.025370155252405883,
          -0.03780478334837732,
          -0.058460385484389844,
          -0.0021463350590499547,
          -0.07474973846556573,
          -0.05623943863821927,
          0.04726563210429352,
          0.07575874912276871,
          -0.057922528471626614,
          0.003701717221850241,
          0.007215055127150646,
          -0.007116256748275128,
          -0.06185444819642818,
          0.04976107362357522,
          -0.027586137789862516,
          -0.000017120212279015125,
          0.07820368687363283,
          -0.06968677181903309,
          0.04966012550727657,
          0.06898514182182462,
          0.024510727236317656,
          -0.05134369258216893,
          -0.017803795186754637,
          0.06506825014526409,
          0.06873935951979995,
          0.0009393943704951354,
          -0.02874237882055661,
          -0.05256250388422091,
          0.08121691856265541,
          -0.08145171356049609,
          -0.013468982585721883,
          -0.052922184805228846,
          -0.018728479699908956,
          -0.054112490750842596,
          -0.07097670748077228,
          0.056082745403309806,
          -0.08802998316093226,
          -0.03372574079172851,
          -0.028019236427302592,
          -0.04475746704791623,
          -0.06747130549293039,
          -0.0121171260461343,
          0.003630098159395255,
          0.06013998858509823,
          -0.04681537897788999,
          0.08956045186607131,
          0.02774833917513477,
          -0.06702818104357053,
          0.0905448132114058,
          0.019307080076657324,
          -0.010843627693547133,
          -0.06574561370843171,
          0.06730822958337601,
          -0.056549467205890366,
          -0.04061778629785626,
          0.0217232793442476,
          -0.02415135338400976,
          0.053260444508765874,
          -0.004877051652025729,
          -0.0012681227163307246,
          -0.08413060664986366,
          0.05255803518130353,
          0.038863090864714324,
          0.06973930371119055,
          0.06589578874927096,
          0.034672578094528096,
          -0.06500852089154208,
          -0.07487599707432589,
          0.020680028363707772,
          0.05332421016447761,
          0.0616145462034278,
          0.03946264385006899,
          0.06280422651029034,
          0.07577136039229561,
          -0.033777848794862425,
          -0.03209912742304912,
          0.06660808008282555,
          0.03294261035203515,
          -0.06063173480056632,
          0.02230315752231472,
          -0.01415513194734364,
          0.02554561176660084,
          -0.07526996131758465,
          -0.002003500897715017,
          0.08017037248417326,
          0.058063508804598464,
          -0.08873107564237642,
          0.05478650142603057,
          -0.013119630432631172,
          -0.055361716624718664,
          0.04368810169698649,
          -0.07597876890327736,
          0.06775141902421031,
          -0.0768392786682459,
          -0.051427464620169644,
          -0.02276711928699974,
          -0.03881519350620621,
          -0.060201111357477,
          -0.005803655759366822,
          0.02722667425262376,
          0.03478770468844186,
          -0.0001944586700024405,
          -0.026253776865268013,
          0.07441580352204344
        ],
        [
          0.015013277868102005,
          0.15863864444954484,
          -0.014353361166251135,
          0.006688582288872496,
          -0.06663136980899524,
          0.07519893557114557,
          0.045861651689565706,
          0.02848745257258271,
          -0.0000482323590839127,
          -0.05575251258104862,
          0.0763842886898549,
          0.03292541169800804,
          0.05969621841812361,
          -0.03473707304307752,
          0.08292602877305745,
          -0.008590862472875566,
          -0.032849957894675215,
          -0.02120469057095144,
          -0.022557269297760016,
          -0.03586842253950522,
          0.034571260372168434,
          -0.008326666529815776,
          0.0031834784967687767,
          -0.013576451209842235,
          0.024115602197595263,
          0.007538049451985505,
          -0.029499115709372907,
          0.037796490454766324,
          0.06327600569390061,
          0.04068588514435951,
          0.006995942063405384,
          -0.07669968207665609,
          -0.0745047240329611,
          0.05034147662624997,
          0.059253356814464246,
          -0.0022727419547865337,
          0.0070911304095387885,
          -0.023314805096443184,
          0.0665241053900835,
          0.011863017724412044,
          0.02276123140291082,
          -0.010399009208732438,
          0.08695827823618214,
          0.08418643555248052,
          0.008207947248011247,
          -0.003031917224988988,
          -0.07699724653525566,
          0.06891621930697453,
          0.07804315830554549,
          0.05005158628456428,
          0.025190139214300532,
          0.03569980097767183,
          0.08606965251956887,
          -0.045725957058598395,
          -0.015101056808323533,
          -0.016301463046603647,
          0.044270853707456044,
          -0.05623718224904488,
          0.04137617175914522,
          0.026355940598282477,
          0.023523567216758197,
          -0.08221162810063029,
          0.036805479024015895,
          0.02734289798133297,
          -0.09016777476566452,
          0.010041218135572936,
          0.09012631931697769,
          0.046610153457144844,
          -0.0149432688192635,
          0.0002889130570962799,
          -0.023876840662773093,
          0.06620131255620042,
          0.06514704958204087,
          -0.040395913254010735,
          -0.0022984500650508792,
          -0.06082159942527744,
          0.0860953705128642,
          -0.08942071615098882,
          -0.06675758409273545,
          0.0025717213185720723,
          -0.09344393673959549,
          -0.0545545174616709,
          0.0587834157570606,
          -0.07623830727824958,
          -0.08869258562776267,
          0.05382745460437423,
          -0.018920848081457185,
          -0.005575267544555542,
          -0.05045225261216429,
          0.08586727621322923,
          0.025162133005663317,
          0.03017955131351925,
          -0.06903658221378835,
          0.009430374687809957,
          -0.04610757826786557,
          0.08647875618986563,
          -0.006692824718442959,
          -0.07500452747994965,
          -0.03138998738246623,
          0.041082919795835976,
          -0.058880313740864255,
          -0.011367992300604014,
          -0.04555928172042363,
          0.0749378621554683,
          0.056117478624844175,
          0.04680650637213289,
          0.07388508451366906,
          -0.03232765058739567,
          0.026847563815730304,
          -0.04456059376304683,
          -0.0590154518011719,
          0.02480476285798282,
          -0.041537007411115455,
          0.024417742443090872,
          -0.058771524109765924,
          0.06782702376459021,
          0.02697315246000193,
          -0.04179995563842432,
          -0.07099233603593365,
          -0.0199425846486337,
          0.012853258829766786,
          -0.024239534782335825,
          0.03377370477687519,
          0.08733112135817091,
          -0.06399402556424634,
          0.07685913543345929,
          0.08683120440594644,
          0.04719001769738395,
          -0.0023065298404289255,
          0.0050341609930000045,
          0.03421977396081946,
          -0.07252577871962089,
          -0.05449125703180073,
          -0.06310581067427976,
          -0.08807326538617098,
          0.03927550805235769,
          -0.08392134125965744,
          -0.0701026277088244,
          -0.06090370360521895,
          -0.08666297646095852,
          -0.047957616715304664,
          0.06256173419841306,
          0.009394586058753174,
          0.0775576958264125,
          -0.06162961174640916,
          0.053060048898962875,
          0.03546115028625752,
          0.06139601239737106,
          -0.014117528636909469,
          -0.076580386153287,
          0.05795083997424619,
          0.03327881782322969,
          -0.08302829866068334,
          -0.07279527516305119,
          -0.0771459911230898,
          0.05356983667670557,
          0.06473289756640414,
          0.012006813125388597,
          0.044253142368054964,
          0.05629334299959111,
          0.041163429449276534,
          0.06516873953964558,
          0.03441933165255726,
          -0.07413861977582913,
          -0.054173937819631916,
          -0.08128986697193379,
          0.04046733717433232,
          0.07176043618031815,
          -0.018076206750691153,
          0.09127664072027093,
          0.042621377360154866,
          -0.061693915711226996,
          -0.04057467042818152,
          0.04726215415142065,
          -0.022837935339982723,
          0.08568368230055012,
          0.020808173509823422,
          0.0663744969487862,
          0.07585114065335645,
          -0.060868522779614076,
          -0.0863592420705106,
          -0.054686466649569096,
          0.05381431083326363,
          0.014013273223213506,
          0.028116244883365536,
          -0.040696154999769814,
          0.01338565160480519,
          0.04168256995157817,
          0.02040455847842416,
          0.019542659049732777,
          0.03476497425927111,
          0.04873774820271576,
          0.0326850118733855,
          0.09521581171204231,
          -0.08888290545299643,
          -0.027201637167863398,
          -0.025346755464290376,
          -0.042943431612189956,
          0.07435714236463693,
          0.0780742335749835,
          -0.04718347413081535,
          -0.03256417141330931,
          0.03276415990881652,
          -0.011594917468606419,
          -0.012511348493138943,
          -0.0372941331470771,
          -0.06805133967238777,
          -0.029038589275232958,
          -0.039814026888260946,
          0.05400735394513637,
          -0.07853610661486475,
          0.01546344824867962,
          -0.08199816950532561,
          -0.00012138742733731043,
          -0.07648225944869129,
          -0.038551383824737544,
          -0.0820693636383273,
          0.035838262658937095,
          0.07124471592057877,
          0.08983453076317734,
          0.025523807998833508,
          -0.0728131547085754,
          -0.03317041582683089,
          0.005575666201503559,
          -0.05957767355283031,
          -0.08277523095786195,
          0.08939141789420953,
          0.02097574167003271,
          0.05549331187349177,
          -0.019271570912848656,
          -0.016783349730244593,
          -0.08527022647925159,
          -0.041652246477360454,
          0.006230171719278301,
          -0.04474069221327064,
          0.08793569081107051,
          -0.003150859974034975
        ],
        [
          0.04535658012868148,
          0.0735122674838104,
          -0.0389512393177831,
          -0.08920062495269918,
          0.07943358160533313,
          -0.016676203515065522,
          -0.011730961367765472,
          0.033632805711428765,
          0.07232887175840222,
          -0.045109276663303076,
          0.003014980579039885,
          -0.04318454418975699,
          -0.057963606304222925,
          -0.07070187314946562,
          -0.06007428792978897,
          0.0441705930446063,
          0.015126214546529413,
          -0.08266993444496773,
          -0.0373493691841537,
          0.08637490865684508,
          -0.018646311083040955,
          0.08917208286456121,
          0.0720944974299373,
          -0.06027276161858597,
          -0.04202238146462716,
          0.05410766669593949,
          0.07151200595056588,
          0.003415904002299544,
          0.0673020050012107,
          -0.006053075031463339,
          -0.024880292191155153,
          -0.08950739433911042,
          -0.06335342811106522,
          -0.05766949367976896,
          -0.05359849782196981,
          0.02383825413970147,
          0.07305374535613054,
          0.00703191034922943,
          0.015626255369691294,
          0.0008522788553302976,
          0.052155658157536235,
          0.042324530253721,
          0.08651624091067874,
          -0.0839037092227579,
          0.02943883810699712,
          -0.04020712905857862,
          -0.053268240532082636,
          -0.01284147613568715,
          -0.01965781668916831,
          -0.08746234904079903,
          -0.030071462027090993,
          -0.07920149319872401,
          0.03035436688274638,
          0.034562874744403976,
          0.06606428039809219,
          -0.04407811985412532,
          0.0006793567284668644,
          -0.05564760578665913,
          -0.012427726374331632,
          0.028677920862028552,
          -0.049919954136171216,
          -0.08381809057138048,
          -0.000055309373070951636,
          -0.09144808294033123,
          -0.07506352075115572,
          0.01158397687637361,
          -0.04332636961582705,
          -0.010468243385419093,
          -0.07681721611778636,
          -0.0900064724034531,
          0.01093944139736869,
          0.06405132717095749,
          0.016990765433592174,
          -0.07151868652998565,
          -0.0027663341979913434,
          -0.05207213541799586,
          -0.006360004335970799,
          0.06982268712918045,
          -0.05924177741261645,
          -0.03417016720777077,
          0.034857959252237704,
          -0.026199248574038266,
          -0.03370268696882607,
          -0.08643554268606866,
          0.015615477430346957,
          -0.07460848871674776,
          0.05760542784369956,
          -0.08851422873868232,
          0.021690226759462423,
          0.06768108540620633,
          -0.08292247596899745,
          -0.004772955806463333,
          -0.08201758002359538,
          -0.04880882975446555,
          0.011575020463715474,
          0.0736663954922265,
          -0.05518797901499089,
          0.03921525042064499,
          -0.005292403835944208,
          0.05545921371291065,
          0.014223839882470968,
          0.012198171169193412,
          -0.0053729273569809825,
          -0.01916041374230536,
          -0.047131017118506945,
          -0.06734608764946284,
          0.03484808167751231,
          -0.042525389544610354,
          0.05650378869158266,
          0.04325203975939936,
          -0.07329273024188228,
          0.06107710072156106,
          -0.07502975744992445,
          0.05043082088203364,
          -0.08479782066354748,
          -0.001344133611717764,
          -0.0007322596266527432,
          -0.04272801738130654,
          -0.06871097837312258,
          -0.07261783381881806,
          -0.06474001548860953,
          0.004927851666740712,
          0.009782725793285924,
          0.009673773324606302,
          -0.012189915382091904,
          -0.014916321898932154,
          -0.07492802433017529,
          0.07166605341801353,
          -0.058951599292985206,
          -0.006402796286907094,
          0.08890981181028473,
          0.012545560194419058,
          -0.07507268724744524,
          -0.08021340110375079,
          0.005268234918231275,
          0.0030017462961697936,
          0.016265305956058712,
          -0.005943767454337998,
          -0.01005746622963328,
          0.07299998557694133,
          0.0010135747470566994,
          -0.05131763069908245,
          -0.024868455950319272,
          0.04854464254994284,
          -0.07327126925996598,
          0.0003039131061571475,
          -0.06174554090978185,
          -0.011269741365572548,
          -0.07378917028520215,
          -0.06630244634097403,
          0.0288520684026392,
          -0.03563079614908489,
          -0.06224490746263466,
          0.03967307966120642,
          0.07148419207474814,
          -0.05924625184380645,
          0.02955259520803718,
          0.07758428176601498,
          0.04240179965964636,
          0.019687481854868745,
          0.08278462005255413,
          0.06216085767840248,
          -0.002702846669956989,
          -0.057214862765808144,
          0.06514411778962524,
          -0.036404381008785756,
          -0.01586732799717908,
          -0.08936362390381636,
          0.09150730252191705,
          -0.01759369573209528,
          0.08094573932033816,
          -0.011258137060693812,
          -0.014992109767007438,
          -0.046851316954018035,
          -0.04168982654819974,
          -0.04527398358169289,
          0.008447923367149727,
          -0.03245275398595491,
          0.05482597599349399,
          0.06648673403228303,
          0.02136357755634597,
          -0.012679182597892644,
          -0.0651167116023082,
          0.02357460861209299,
          0.02423219740384203,
          -0.04857487364371421,
          0.0333906737555189,
          -0.05884879470841988,
          -0.05468989170133743,
          -0.050637960934654454,
          0.08966722937905375,
          0.020939375885664233,
          0.005034039146304171,
          -0.002084459153337557,
          -0.037739079418040285,
          -0.03788627139239505,
          -0.08062695172886758,
          -0.07574697123246084,
          -0.07959021840458198,
          0.040833057542254136,
          -0.020643002314486448,
          0.023573691063139664,
          -0.07407310529284829,
          -0.07748736971783182,
          -0.04136829834354184,
          0.07561344491123263,
          -0.07142885297451645,
          -0.06737197395684408,
          -0.01595536785478916,
          -0.006023732704254315,
          -0.02119407149716876,
          -0.0012852907055599058,
          0.08523068355331498,
          -0.04571668680678609,
          -0.013773366711998908,
          -0.041892147618754656,
          0.08891031644897225,
          0.08487167039832702,
          0.06063499034081038,
          -0.01923250945404637,
          0.04743433402441789,
          0.051236161361310005,
          0.04837595550221119,
          0.02652233850476367,
          -0.023157236558592604,
          0.04472542591582801,
          0.07517657360002715,
          0.03828821264836501,
          -0.02089413770713153,
          0.06859968227225935,
          -0.05814361120347137,
          -0.00024394773072286845,
          -0.01488425929162684,
          -0.08815726196102325,
          -0.037901086032981916,
          -0.07305455652919426,
          0.0005446396000419091
        ],
        [
          0.02468092793706575,
          0.006702932097990688,
          0.0641646472075243,
          -0.061037799874955334,
          0.05438881721738634,
          0.010250171948389954,
          -0.009065397870884478,
          -0.0219502046626825,
          0.029712510416043548,
          0.07154764322388396,
          -0.05121435716154054,
          -0.0542492313102589,
          0.0796329196963405,
          -0.031573860438223855,
          -0.019129220191121215,
          -0.07392011703038177,
          -0.04534269081201666,
          -0.022132692540321994,
          0.031729983258554376,
          0.08067148033427876,
          0.030520951623949143,
          -0.021774279177767586,
          -0.0205697854866751,
          0.004563568011393241,
          -0.06731727793156847,
          -0.0877444936266365,
          0.039127632893702975,
          0.0908838721384379,
          0.07165305843789188,
          -0.042899599973129275,
          0.05529956390550475,
          -0.06095384722116925,
          0.04991287442716498,
          -0.054337153807043764,
          0.033079478935520705,
          -0.0876706526970598,
          0.00263504501456726,
          0.08941452333824022,
          0.003841031916988168,
          -0.08949319878926074,
          -0.052330968437412397,
          -0.08455051943715353,
          0.08128501938355817,
          -0.07975753312409,
          -0.07760906818140907,
          -0.049632569000276794,
          0.08549174163810673,
          -0.005312121504725845,
          0.06443363520520975,
          0.0410452519406001,
          -0.01888729531003239,
          0.08282882899867228,
          0.03384693639857167,
          0.05254656782543281,
          -0.05124425287212708,
          -0.0789282266984525,
          -0.03162702618947689,
          0.05143630279885345,
          0.024244475535141065,
          0.08469337290743213,
          -0.08656309322376189,
          -0.06629564213584334,
          0.08612555573886739,
          0.03259416381459824,
          -0.010600893831144424,
          -0.009644569576508749,
          -0.09073747272922073,
          0.0325502811172283,
          -0.03525020681212576,
          -0.04470428370420135,
          0.022090323384713034,
          -0.08114257288134563,
          -0.08799932074573068,
          0.02454696780116408,
          -0.034913655871264555,
          0.03893143142710865,
          -0.02772454069872244,
          0.06394767348000475,
          0.0018439968674489387,
          -0.057821021418063126,
          0.01145401653198207,
          -0.0419242664600126,
          -0.016494195572545906,
          -0.04686773136964962,
          0.003680514008302036,
          -0.07919017841352641,
          -0.023502189810348628,
          0.01605502799773565,
          -0.09105602120119512,
          0.005543122767085191,
          0.010224802883723292,
          -0.06607819229432806,
          -0.06354146471225172,
          -0.0022654354654147962,
          0.054969753658327326,
          -0.0698905607012688,
          -0.014637298755900256,
          0.07522985453012397,
          0.02511636979659043,
          -0.04953008152221237,
          0.053049446423485885,
          -0.004046395480998512,
          -0.051388039911596614,
          -0.07435573144187067,
          0.039863673168766385,
          -0.019173425286898894,
          -0.07315412866143334,
          0.050259530504777696,
          -0.08585838987989333,
          -0.06848464483169125,
          0.03585733456653527,
          0.029876712402879032,
          0.027054181174774084,
          0.02017146689682893,
          -0.01565571807660606,
          0.08265316980955109,
          0.015580787999889408,
          0.0274612584420912,
          0.004947712071692074,
          0.04727220260924656,
          -0.07747151565318917,
          -0.0022674124927067802,
          0.03934673257852353,
          -0.053533733880702046,
          -0.04727895815738488,
          0.0013995369052597656,
          0.024834550222855002,
          0.0205870067384743,
          0.09177474957133273,
          0.04629373221174753,
          0.045917689438404054,
          0.055792670364659944,
          0.048665278039879724,
          -0.029091900495415716,
          -0.0027892064388722474,
          -0.05597789085446551,
          -0.07370287760205531,
          0.06468197402780908,
          -0.03592967633167389,
          -0.047643214672155695,
          0.051943888910855884,
          0.002954237735622399,
          0.06140235458012694,
          -0.03756135639651871,
          0.07837052080605983,
          0.05941606602133966,
          0.04315041523757464,
          0.0000585836577732566,
          -0.0703119402771701,
          0.07244119929444903,
          -0.011886112667368349,
          0.04152038796544965,
          -0.021706302308101458,
          0.07506375163972553,
          0.0067548934321573694,
          -0.07803484465258473,
          0.029797513654403644,
          0.03941412576832786,
          -0.06304822675087206,
          -0.06960947594360105,
          0.07935330888110022,
          0.06591918242535677,
          0.06878317589390905,
          -0.0544441737778776,
          0.08230244346230563,
          -0.05866129527580561,
          -0.078383006737285,
          0.012444767747827995,
          -0.0780476731942179,
          0.02690065759511223,
          -0.02533720161574673,
          -0.016410122337304357,
          0.04904616530154623,
          -0.042529244121704564,
          -0.0002476229037595033,
          0.045186381688249753,
          0.08648096269706819,
          -0.06984817423818432,
          0.03651348855821025,
          0.07789949500103924,
          0.07020933282918428,
          -0.024316404207451497,
          0.08038851425299294,
          -0.04953043402016887,
          0.05109805658662105,
          -0.010382731908595517,
          -0.05088144056583238,
          0.035464937213724256,
          0.04130329873821748,
          -0.07170101891017415,
          0.07532778957032718,
          0.06739243888195347,
          -0.06875621803235558,
          -0.0836853806954758,
          -0.08424553678530682,
          -0.07400694737376765,
          0.004693489918983844,
          -0.005163827646350738,
          -0.0013906845075114113,
          0.09056335779973254,
          -0.056790157313238686,
          0.012818708469617522,
          -0.046626433811452817,
          0.07656724440404775,
          -0.03228101774998857,
          -0.08808352318430113,
          0.020838865610584244,
          -0.049069725946301886,
          -0.03142098970393087,
          -0.005280594462077807,
          0.05424259709118707,
          0.08362985021143954,
          -0.02457032315382541,
          -0.09123829237383407,
          -0.04822076185021778,
          -0.04719920773229273,
          0.07192521249577556,
          0.044888701890720875,
          0.005611224521969431,
          -0.014531196006725425,
          0.08895166668393308,
          0.0871397384223856,
          -0.0357638944236251,
          -0.02851406099720306,
          -0.010523486482620713,
          0.017826333094947664,
          0.032297241527487155,
          0.044781859127887486,
          0.08685816029003651,
          0.0031382985591646116,
          -0.04562472668046067,
          0.02513875493782464,
          0.05947238058156777,
          0.05269282616988891,
          0.02370052569805966,
          0.012636172305237087,
          0.030986196669361362
        ],
        [
          -0.036386201013844724,
          0.14609776768807187,
          -0.002852837744677255,
          -0.023717619113722756,
          -0.08351342462127213,
          -0.051967627569361054,
          -0.08052575217611221,
          0.04115453949213316,
          -0.009650860360696758,
          -0.07437023463707802,
          -0.0015848360090231675,
          0.006415451463516659,
          -0.05437720111742284,
          0.023546645014258252,
          0.025644989513462984,
          0.01510575870840802,
          0.023256304122874664,
          -0.067841407942463,
          0.08800590683389342,
          0.0025821821396727275,
          0.06150537773900702,
          0.013588492946861321,
          0.038087806074318394,
          -0.02516671735653471,
          -0.003780842293657031,
          0.011218106924272183,
          -0.07900269366019123,
          -0.01921414795959992,
          0.015059196563729452,
          -0.06946684215937911,
          0.083893396724018,
          -0.08233940777912727,
          -0.032235696495605065,
          -0.08139030031780677,
          0.07666592556316996,
          -0.08474330313868621,
          -0.05144863952389247,
          -0.07883328359164882,
          -0.07140560391358138,
          0.05941711726331935,
          -0.03739564615998355,
          0.0032442347569264784,
          0.06858489094728897,
          0.07819048844627356,
          -0.0005278387509655558,
          -0.02694436357745296,
          0.018826318607998497,
          0.08127412876447142,
          -0.035669181393150035,
          0.006162935200823898,
          0.04655619467621925,
          0.03863905012610028,
          -0.009025188132057365,
          -0.08361419366892997,
          0.06919847716090803,
          -0.02333301423568311,
          -0.06676632865452817,
          0.08613046518689632,
          0.07003245271526667,
          -0.04573686555053559,
          -0.006509042928223312,
          -0.04220738817664142,
          0.015823433640484875,
          -0.06984307950235748,
          -0.014606869963180743,
          -0.0027173261495440065,
          0.02085343866868208,
          -0.048217348152577603,
          0.03902271928697454,
          -0.06283276209668968,
          -0.08813642940194075,
          -0.008734723284790377,
          -0.008451870239222713,
          -0.02047677354274092,
          -0.02371192879189471,
          0.08648232449190128,
          0.014238435920579197,
          0.05673423263035529,
          0.04552112153631887,
          -0.028348061255896582,
          0.006527565408747776,
          0.05074620181675625,
          -0.016674835718084063,
          0.002711753290919026,
          -0.018486255846228435,
          0.0009977529053047547,
          -0.08376227353133595,
          -0.023560929932549754,
          -0.08184057099007737,
          -0.035897733409951026,
          -0.030625818706851108,
          0.091939533503387,
          -0.05122569735695978,
          0.008726908288798237,
          0.004169562832586309,
          0.003382474415204511,
          0.050434178092678035,
          0.03247109666893922,
          -0.0591084928346951,
          0.029607047401611804,
          0.0834782475989094,
          -0.09044584106327679,
          0.043907979226916985,
          0.05302159409623341,
          0.04315553250920079,
          0.021871270321725377,
          0.03939821239210965,
          -0.09102114158617874,
          -0.04965066495104905,
          -0.032984430931480194,
          0.03355093297438243,
          -0.05010744614472568,
          0.08101721445937234,
          -0.08300587222501267,
          -0.03652685016312997,
          -0.08558909161698608,
          0.02904428798307627,
          -0.0885099148987291,
          0.07758920281840502,
          0.0018882863984050553,
          0.04656511226871558,
          0.03877509531344135,
          -0.0006894792325704628,
          -0.014990295181034523,
          0.07332611760029237,
          -0.05956802604346729,
          -0.025605225829546403,
          -0.07255223416167737,
          -0.06340573713902134,
          -0.08154511361900335,
          -0.0816922101348071,
          0.04731455549880068,
          0.01741456424129196,
          0.06577348527199929,
          -0.050078240562361605,
          0.059545672013538775,
          0.06121841119602278,
          -0.0652438106273473,
          0.06634341491807383,
          -0.03816550693578055,
          -0.06125500333407711,
          0.05056503662023997,
          -0.015915223916242765,
          -0.005628893355316448,
          0.0592616026391888,
          0.08415260718281689,
          0.017043022667075948,
          0.07542842030500582,
          0.06487499336289869,
          0.031697296903402096,
          -0.06707135487481806,
          -0.07859931637685993,
          -0.05969540300000172,
          0.05067295223887393,
          -0.06959091558112808,
          0.023573576212334035,
          -0.009191369740692316,
          0.026686593441950138,
          -0.05202021882943418,
          -0.056232138519523765,
          0.04675242511181627,
          -0.04674948773925897,
          -0.01211673494762668,
          0.08507891830230757,
          -0.03280336249296979,
          -0.020016058461459325,
          -0.0028100334979209197,
          0.059957569682639246,
          -0.02815901197653304,
          0.06958727216992437,
          0.06678970911284965,
          -0.06792473829262972,
          -0.08596184774920328,
          0.04223833083653923,
          0.02986208936009815,
          -0.0007981018669308088,
          -0.06756445841367587,
          -0.0736877683166167,
          -0.04967253937309907,
          -0.018405277061038568,
          0.06254044057951591,
          -0.056613247358141126,
          -0.03084023615932948,
          0.022616299933254817,
          0.03899138533464046,
          -0.006192875276148616,
          0.0030365361772623817,
          -0.010758252141776468,
          0.04718264863287152,
          0.0266468749110628,
          -0.019619350893241582,
          -0.0028367056714979255,
          0.007860796789354016,
          0.08245600694338046,
          -0.006501909040273461,
          0.06763793554085477,
          -0.023214523647683647,
          0.05623187419839825,
          -0.08212181761805008,
          0.056897733780543226,
          0.006390562233759349,
          0.08223366087966959,
          -0.07013385465935718,
          -0.041631737666988244,
          -0.07752963274122199,
          0.06897874494354465,
          0.0868929018981649,
          -0.0883579650126896,
          0.07840512784198574,
          -0.017192737463553664,
          0.011766707320329072,
          -0.03543801774944119,
          -0.017950976385741627,
          0.038872290740020986,
          -0.06258512141072683,
          -0.07620616388477017,
          -0.0010460084462981408,
          0.04283235008765283,
          -0.07492783522612377,
          0.032565037443984986,
          -0.06408242863728676,
          -0.029709871238569316,
          -0.0077924350986573855,
          -0.06529139647841213,
          0.046926423765543845,
          0.054789881664006855,
          -0.01794993241240321,
          0.04623949053024918,
          0.0626220299609291,
          0.0894994052521229,
          0.0894826157391316,
          0.060104703513907495,
          0.052546864005826165,
          -0.0019516039068529071,
          -0.05564474834081479,
          0.05318839152236405,
          0.008393122645642086
        ],
        [
          -0.04983392052288407,
          -0.07509199079446742,
          0.021251994424899594,
          0.0732247654719962,
          -0.08397636844224618,
          -0.07754357087423212,
          0.011292290575819298,
          0.07684316481858282,
          -0.036037820967157755,
          0.05597339810159251,
          -0.08071063695116883,
          0.0060277445082928425,
          0.08286260259489005,
          0.030421495779388106,
          -0.07698277814260748,
          0.057128689670442684,
          0.07780809371387082,
          -0.0691256661012071,
          0.04484260319837622,
          0.02439705205839234,
          -0.07277435008978476,
          0.04889052621647353,
          -0.06514559961834941,
          -0.010205305225671951,
          -0.08640967337486899,
          -0.008489398270948897,
          0.054890582847625255,
          -0.056202191646289645,
          0.043053627342419604,
          -0.010167993307709755,
          -0.06166394631505738,
          0.03372194629443921,
          -0.0636754694271323,
          -0.044790582264126105,
          -0.06819750255344735,
          0.03889120182489121,
          -0.05815726404576742,
          0.06227397698500578,
          -0.017462283443108004,
